<?xml version="1.0" encoding="ISO-8859-1"?>
<smile version="1.0" id="Unnamed" numsamples="1000">
	<nodes>
		<cpt id="stType_0">
			<state id="null" />
			<state id="impasse" />
			<state id="error" />
			<state id="correct" />
			<probabilities>0 0 0 1</probabilities>
		</cpt>
		<cpt id="stTopic_0">
			<state id="null" />
			<state id="S_G_2" />
			<probabilities>1 0</probabilities>
		</cpt>
		<decision id="tTopic_1">
			<state id="null" />
			<state id="S_G_2" />
			<state id="R_2" />
		</decision>
		<cpt id="RS_G_2_0">
			<state id="not_ready" />
			<state id="complete" />
			<state id="ready" />
			<state id="relevant" />
			<probabilities>0 0 0.09999999999999998 0.9</probabilities>
		</cpt>
		<deterministic id="FRS_G_2_1">
			<state id="no_match" />
			<state id="match" />
			<parents>tTopic_1</parents>
			<resultingstates>no_match match no_match</resultingstates>
		</deterministic>
		<decision id="tType_1">
			<state id="null" />
			<state id="prompt" />
			<state id="hint" />
			<state id="teach" />
			<state id="do" />
			<parents>tTopic_1</parents>
		</decision>
		<deterministic id="FRR_2_1">
			<state id="no_match" />
			<state id="match" />
			<parents>tTopic_1</parents>
			<resultingstates>no_match no_match match</resultingstates>
		</deterministic>
		<deterministic id="RR_2_1">
			<state id="irrelevant" />
			<state id="relevant" />
			<parents>FRR_2_1 tType_1</parents>
			<resultingstates>irrelevant irrelevant irrelevant irrelevant irrelevant irrelevant irrelevant relevant relevant irrelevant</resultingstates>
		</deterministic>
		<cpt id="RS_G_2_1">
			<state id="not_ready" />
			<state id="complete" />
			<state id="ready" />
			<state id="relevant" />
			<parents>RS_G_2_0 FRS_G_2_1 tType_1 RR_2_1</parents>
			<probabilities>1 0 0 0 1 0 0 0 1 0 0 0 1 0 0 0 1 0 0 0 1 0 0 0 1 0 0 0 1 0 0 0 1 0 0 0 1 0 0 0 1 0 0 0 1 0 0 0 1 0 0 0 1 0 0 0 1 0 0 0 1 0 0 0 1 0 0 0 1 0 0 0 1 0 0 0 1 0 0 0 0 1 0 0 0 1 0 0 0 1 0 0 0 1 0 0 0 1 0 0 0 1 0 0 0 1 0 0 0 1 0 0 0 1 0 0 0 1 0 0 0 1 0 0 0 1 0 0 0 1 0 0 0 1 0 0 0 1 0 0 0 1 0 0 0 1 0 0 0 1 0 0 0 1 0 0 0 1 0 0 0 0 1 0 0 0 0 1 0 0 1 0 0 0 0 1 0 0 1 0 0 0 0 1 0 0 1 0 0 0 0 1 0 0 1 0 0 0 0 1 0 0 1 0 0 0 0 1 0 0 0 1 0 0 0 1 0 0 0 1 0 0 0 1 0 0 0 1 0 0 0 1 0 0 0 1 0 0 0 1 0 0 0.5 0.5 0 0 0 1 0 0 0.5 0.5 0 0 0 1 0 0 0.5 0.5 0 0 0 1 0 0 0.5 0.5 0 0 0 1 0 0 0.5 0.5 0 0 0 1 0 0 0.15 0.85 0 0 0 1 0 0 0 1 0 0 0 1 0 0 0 1 0 0 0 1 0 0 0 1 0 0 0 1 0 0 0 1 0 0 0 1</probabilities>
		</cpt>
		<cpt id="stTopic_2">
			<state id="null" />
			<state id="S_G_2" />
			<parents>tTopic_1 RS_G_2_1</parents>
			<probabilities>1 0 1 0 0.05 0.9500000000000001 0.05 0.9500000000000001 0 1 0 1 0 1 0 1 0 1 0 1 0 1 0 1</probabilities>
		</cpt>
		<cpt id="stHelpStyle_0">
			<state id="avoid" />
			<state id="neutral" />
			<state id="abuse" />
			<probabilities>0.1334112353397502 0.826374672945963 0.0402140917142868</probabilities>
		</cpt>
		<cpt id="Indep_0">
			<state id="level_0" />
			<state id="level_1" />
			<state id="level_2" />
			<state id="level_3" />
			<state id="level_4" />
			<probabilities>0.04715488309998702 0.1860973799133576 0.317816062201206 0.2949876407634882 0.1539440340219613</probabilities>
		</cpt>
		<cpt id="Indep_1">
			<state id="level_0" />
			<state id="level_1" />
			<state id="level_2" />
			<state id="level_3" />
			<state id="level_4" />
			<parents>Indep_0 tType_1</parents>
			<probabilities>0.8500000000000001 0.15 0 0 0 1 0 0 0 0 1 0 0 0 0 1 0 0 0 0 1 0 0 0 0 0.05 0.8 0.15 0 0 0.3 0.7 0 0 0 0.4 0.6 0 0 0 0.7 0.3 0 0 0 1 0 0 0 0 0 0.05 0.8 0.15 0 0 0.3 0.7 0 0 0 0.4 0.6 0 0 0.1 0.6 0.3 0 0 0.95 0.05 0 0 0 0 0 0.05 0.8 0.1499999999999999 0 0 0.3 0.7 0 0 0 0.4 0.6 0 0 0.1 0.6 0.3 0 0 0.95 0.05 0 0 0 0 0 0.05 0.95 0 0 0 0.3 0.7 0 0 0 0.4 0.6 0 0 0.1 0.6 0.3 0 0 0.95 0.05 0</probabilities>
		</cpt>
		<cpt id="stHelpStyle_1">
			<state id="avoid" />
			<state id="neutral" />
			<state id="abuse" />
			<parents>stHelpStyle_0 Indep_1</parents>
			<probabilities>0.8 0.2 0 0.85 0.15 0 0.9 0.1 0 0.95 0.05 0 0.95 0.05 0 0 0.85 0.15 0 0.9 0.1 0.05 0.9 0.05 0.05 0.9 0.05 0.05 0.95 0 0 0.05 0.95 0 0.05 0.95 0 0.1 0.9 0 0.15 0.85 0 0.2 0.8</probabilities>
		</cpt>
		<cpt id="S_G_2_0">
			<state id="unknown" />
			<state id="known" />
			<probabilities>0.7688361509620926 0.2311638490379074</probabilities>
		</cpt>
		<deterministic id="FS_G_2_1">
			<state id="no_match" />
			<state id="match" />
			<parents>tTopic_1</parents>
			<resultingstates>no_match match no_match</resultingstates>
		</deterministic>
		<cpt id="R_2_0">
			<state id="unknown" />
			<state id="known" />
			<probabilities>0.76 0.24</probabilities>
		</cpt>
		<deterministic id="FR_2_1">
			<state id="no_match" />
			<state id="match" />
			<parents>tTopic_1</parents>
			<resultingstates>no_match no_match match</resultingstates>
		</deterministic>
		<cpt id="R_2_1">
			<state id="unknown" />
			<state id="known" />
			<parents>R_2_0 FR_2_1 tType_1 stHelpStyle_1</parents>
			<probabilities>0.95 0.05 0.95 0.05 0.95 0.05 0.95 0.05 0.95 0.05 0.95 0.05 0.95 0.05 0.95 0.05 0.95 0.05 0.95 0.05 0.95 0.05 0.95 0.05 0.95 0.05 0.95 0.05 0.95 0.05 0.95 0.05 0.95 0.05 0.95 0.05 0.85 0.15 0.9 0.1 0.9 0.1 0.65 0.35 0.75 0.25 0.85 0.15 0.09999999999999998 0.9 0.2 0.8 0.5 0.5 0.65 0.35 0.8 0.2 0.9 0.1 0 1 0 1 0 1 0 1 0 1 0 1 0 1 0 1 0 1 0 1 0 1 0 1 0 1 0 1 0 1 0 1 0 1 0 1 0 1 0 1 0 1 0 1 0 1 0 1 0 1 0 1 0 1 0 1 0 1 0 1</probabilities>
		</cpt>
		<cpt id="S_G_1_0">
			<state id="unknown" />
			<state id="known" />
			<probabilities>0.01616206680276898 0.9838379331972311</probabilities>
		</cpt>
		<cpt id="R_1_0">
			<state id="unknown" />
			<state id="known" />
			<probabilities>0.01480308040183506 0.985196919598165</probabilities>
		</cpt>
		<cpt id="R_1_1">
			<state id="unknown" />
			<state id="known" />
			<parents>R_1_0 stHelpStyle_1</parents>
			<probabilities>0.95 0.05 0.95 0.05 0.95 0.05 0 1 0 1 0 1</probabilities>
		</cpt>
		<cpt id="S_G_0_0">
			<state id="unknown" />
			<state id="known" />
			<probabilities>0 1</probabilities>
		</cpt>
		<cpt id="S_G_0_1">
			<state id="unknown" />
			<state id="known" />
			<parents>S_G_0_0</parents>
			<probabilities>0.09999999999999998 0.9 0 1</probabilities>
		</cpt>
		<cpt id="S_G_1_1">
			<state id="unknown" />
			<state id="known" />
			<parents>S_G_1_0 stHelpStyle_1 R_1_1 S_G_0_1</parents>
			<probabilities>1 0 1 0 1 0 0.09999999999999998 0.9 1 0 1 0 1 0 0.09999999999999998 0.9 1 0 1 0 1 0 0.09999999999999998 0.9 0 1 0 1 0 1 0 1 0 1 0 1 0 1 0 1 0 1 0 1 0 1 0 1</probabilities>
		</cpt>
		<cpt id="S_G_2_1">
			<state id="unknown" />
			<state id="known" />
			<parents>S_G_2_0 FS_G_2_1 tType_1 stHelpStyle_1 R_2_1 S_G_1_1</parents>
			<probabilities>1 0 1 0 1 0 0.09999999999999998 0.9 1 0 1 0 1 0 0.09999999999999998 0.9 1 0 1 0 1 0 0.09999999999999998 0.9 1 0 1 0 1 0 0.09999999999999998 0.9 1 0 1 0 1 0 0.09999999999999998 0.9 1 0 1 0 1 0 0.09999999999999998 0.9 1 0 1 0 1 0 0.09999999999999998 0.9 1 0 1 0 1 0 0.09999999999999998 0.9 1 0 1 0 1 0 0.09999999999999998 0.9 1 0 1 0 1 0 0.09999999999999998 0.9 1 0 1 0 1 0 0.09999999999999998 0.9 1 0 1 0 1 0 0.09999999999999998 0.9 1 0 1 0 1 0 0.09999999999999998 0.9 1 0 1 0 1 0 0.09999999999999998 0.9 1 0 1 0 1 0 0.09999999999999998 0.9 0.95 0.05 0.95 0.05 0.95 0.05 0.09999999999999998 0.9 0.95 0.05 0.95 0.05 0.95 0.05 0.09999999999999998 0.9 0.95 0.05 0.95 0.05 0.95 0.05 0.09999999999999998 0.9 0.8 0.2 0.8 0.2 0.8 0.2 0.09999999999999998 0.9 0.9 0.1 0.9 0.1 0.9 0.1 0.09999999999999998 0.9 0.95 0.05 0.95 0.05 0.95 0.05 0.09999999999999998 0.9 0.6 0.4 0.6 0.4 0.6 0.4 0.09999999999999998 0.9 0.7 0.3 0.7 0.3 0.7 0.3 0.09999999999999998 0.9 0.85 0.15 0.85 0.15 0.85 0.15 0.09999999999999998 0.9 0.15 0.85 0.15 0.85 0.15 0.85 0.09999999999999998 0.9 0.25 0.75 0.25 0.75 0.25 0.75 0.09999999999999998 0.9 0.6 0.4 0.6 0.4 0.6 0.4 0.09999999999999998 0.9 0.05000000000000004 0.95 0.05000000000000004 0.95 0.05000000000000004 0.95 0.05000000000000004 0.95 0.05000000000000004 0.95 0.05000000000000004 0.95 0.05000000000000004 0.95 0.05000000000000004 0.95 0.05000000000000004 0.95 0.05000000000000004 0.95 0.05000000000000004 0.95 0.05000000000000004 0.95 0 1 0 1 0 1 0 1 0 1 0 1 0 1 0 1 0 1 0 1 0 1 0 1 0 1 0 1 0 1 0 1 0 1 0 1 0 1 0 1 0 1 0 1 0 1 0 1 0 1 0 1 0 1 0 1 0 1 0 1 0 1 0 1 0 1 0 1 0 1 0 1 0 1 0 1 0 1 0 1 0 1 0 1 0 1 0 1 0 1 0 1 0 1 0 1 0 1 0 1 0 1 0 1 0 1 0 1 0 1 0 1 0 1 0 1 0 1 0 1 0 1 0 1 0 1 0 1 0 1 0 1 0 1 0 1 0 1 0 1 0 1 0 1 0 1 0 1 0 1 0 1 0 1 0 1 0 1 0 1 0 1 0 1 0 1 0 1 0 1 0 1 0 1 0 1 0 1 0 1 0 1 0 1 0 1 0 1 0 1 0 1 0 1 0 1 0 1 0 1 0 1 0 1 0 1 0 1 0 1 0 1 0 1 0 1 0 1 0 1 0 1 0 1 0 1 0 1 0 1 0 1 0 1 0 1 0 1 0 1</probabilities>
		</cpt>
		<cpt id="stType_2">
			<state id="null" />
			<state id="impasse" />
			<state id="error" />
			<state id="correct" />
			<parents>stTopic_2 tType_1 stHelpStyle_1 S_G_2_1</parents>
			<probabilities>0.05 0.95 0 0 0.05 0.95 0 0 0.05 0.95 0 0 0.05 0.95 0 0 0.05 0.95 0 0 0.05 0.95 0 0 0.05 0.95 0 0 0.05 0.95 0 0 0.05 0.95 0 0 0.05 0.95 0 0 0.05 0.95 0 0 0.05 0.95 0 0 0.05 0.95 0 0 0.05 0.95 0 0 0.05 0.95 0 0 0.05 0.95 0 0 0.05 0.95 0 0 0.05 0.95 0 0 0.05 0.95 0 0 0.05 0.95 0 0 0.05 0.95 0 0 0.05 0.95 0 0 0.05 0.95 0 0 0.05 0.95 0 0 0.05 0.95 0 0 0.05 0.95 0 0 0.05 0.95 0 0 0.05 0.95 0 0 0.05 0.95 0 0 0.05 0.95 0 0 0 0.1 0.85 0.05 0 0.01 0.04 0.95 0 0.475 0.475 0.05 0 0.05 0.05 0.9 0 0.9 0.05 0.05 0 0.8 0.05 0.15 0 0.1 0.85 0.05 0 0.01 0.04 0.95 0 0.475 0.475 0.05 0 0.05 0.05 0.9 0 0.9 0.05 0.05 0 0.75 0.05 0.2 0 0.1 0.85 0.05 0 0.01 0.04 0.95 0 0.475 0.475 0.05 0 0.05 0.05 0.9 0 0.9 0.05 0.05 0 0.6 0.05 0.35 0 0.1 0.85 0.05 0 0.01 0.04 0.95 0 0.475 0.475 0.05 0 0.05 0.05 0.9 0 0.9 0.05 0.05 0 0.75 0.05 0.2 0 0.1 0.85 0.05 0 0.01 0.04 0.95 0 0.475 0.475 0.05 0 0.05 0.05 0.9 0 0.025 0.025 0.95 0 0.05 0.05 0.9</probabilities>
		</cpt>
		<utility id="U_tType_1">
			<parents>tType_1</parents>
			<utilities>1 1 1 1 1</utilities>
		</utility>
		<deterministic id="PH_S_G_2_R_2_0">
			<state id="null" />
			<state id="prompt" />
			<state id="hint" />
			<state id="teach" />
			<state id="do" />
			<resultingstates>null</resultingstates>
		</deterministic>
		<deterministic id="HelpSeqCoherence_1">
			<state id="incoherent" />
			<state id="coherent" />
			<parents>tTopic_1 tType_1 PH_S_G_2_R_2_0</parents>
			<resultingstates>coherent coherent coherent coherent coherent coherent coherent coherent coherent coherent coherent coherent coherent coherent coherent coherent coherent coherent coherent coherent coherent coherent coherent coherent coherent coherent coherent coherent coherent coherent coherent incoherent incoherent incoherent incoherent coherent coherent incoherent incoherent incoherent coherent coherent coherent incoherent incoherent coherent coherent coherent coherent coherent coherent coherent coherent coherent coherent coherent incoherent incoherent incoherent incoherent coherent coherent incoherent incoherent incoherent coherent coherent coherent incoherent incoherent coherent coherent coherent coherent coherent</resultingstates>
		</deterministic>
		<deterministic id="Coherence_1">
			<state id="incoherent" />
			<state id="coherent" />
			<parents>stTopic_0 stType_0 tTopic_1 tType_1 HelpSeqCoherence_1</parents>
			<resultingstates>incoherent coherent incoherent incoherent incoherent incoherent incoherent incoherent incoherent incoherent incoherent incoherent incoherent coherent incoherent incoherent incoherent incoherent incoherent coherent incoherent incoherent incoherent incoherent incoherent coherent incoherent coherent incoherent incoherent incoherent incoherent incoherent incoherent incoherent incoherent incoherent incoherent incoherent incoherent incoherent incoherent incoherent coherent incoherent incoherent incoherent incoherent incoherent coherent incoherent incoherent incoherent incoherent incoherent coherent incoherent coherent incoherent incoherent incoherent coherent incoherent incoherent incoherent incoherent incoherent incoherent incoherent incoherent incoherent incoherent incoherent coherent incoherent incoherent incoherent incoherent incoherent coherent incoherent incoherent incoherent incoherent incoherent coherent incoherent coherent incoherent incoherent incoherent coherent incoherent incoherent incoherent incoherent incoherent incoherent incoherent incoherent incoherent incoherent incoherent coherent incoherent incoherent incoherent incoherent incoherent coherent incoherent incoherent incoherent incoherent incoherent coherent incoherent coherent incoherent incoherent incoherent coherent incoherent incoherent incoherent incoherent incoherent incoherent incoherent incoherent incoherent incoherent incoherent coherent incoherent incoherent incoherent incoherent incoherent coherent incoherent incoherent incoherent incoherent incoherent coherent incoherent coherent incoherent incoherent incoherent incoherent incoherent incoherent incoherent incoherent incoherent incoherent incoherent incoherent incoherent incoherent incoherent coherent incoherent incoherent incoherent incoherent incoherent coherent incoherent incoherent incoherent incoherent incoherent coherent incoherent coherent incoherent incoherent incoherent coherent incoherent incoherent incoherent incoherent incoherent incoherent incoherent incoherent incoherent incoherent incoherent coherent incoherent incoherent incoherent incoherent incoherent coherent incoherent incoherent incoherent incoherent incoherent coherent incoherent coherent incoherent incoherent incoherent coherent incoherent incoherent incoherent incoherent incoherent incoherent incoherent incoherent incoherent incoherent incoherent coherent incoherent incoherent incoherent incoherent incoherent coherent incoherent incoherent incoherent incoherent incoherent coherent incoherent coherent incoherent incoherent</resultingstates>
		</deterministic>
		<utility id="U_Coherence_1">
			<parents>Coherence_1</parents>
			<utilities>0 1</utilities>
		</utility>
		<cpt id="Relevance_1">
			<state id="irrelevant" />
			<state id="relevant" />
			<parents>tTopic_1 RS_G_2_0 RS_G_2_1</parents>
			<probabilities>0.09999999999999998 0.9 0.09999999999999998 0.9 0.09999999999999998 0.9 0.09999999999999998 0.9 0.09999999999999998 0.9 0.09999999999999998 0.9 0.09999999999999998 0.9 0.09999999999999998 0.9 0.09999999999999998 0.9 0.09999999999999998 0.9 0.09999999999999998 0.9 0.09999999999999998 0.9 0.09999999999999998 0.9 0.09999999999999998 0.9 0.09999999999999998 0.9 0.09999999999999998 0.9 1 0 1 0 1 0 1 0 1 0 1 0 1 0 1 0 1 0 1 0 1 0 1 0 1 0 1 0 1 0 0 1 1 0 1 0 1 0 1 0 1 0 1 0 1 0 1 0 1 0 1 0 1 0 1 0 1 0 1 0 1 0 0 1</probabilities>
		</cpt>
		<utility id="U_Relevance_1">
			<parents>Relevance_1</parents>
			<utilities>0 1</utilities>
		</utility>
		<cpt id="R_0_0">
			<state id="unknown" />
			<state id="known" />
			<probabilities>0.19 0.8100000000000001</probabilities>
		</cpt>
		<cpt id="R_0_1">
			<state id="unknown" />
			<state id="known" />
			<parents>R_0_0</parents>
			<probabilities>0.95 0.05 0 1</probabilities>
		</cpt>
		<cpt id="R_0_2">
			<state id="unknown" />
			<state id="known" />
			<parents>R_0_1</parents>
			<probabilities>1 0 0 1</probabilities>
		</cpt>
		<utility id="U_R_0_2">
			<parents>R_0_2</parents>
			<utilities>0 1</utilities>
		</utility>
		<cpt id="R_1_2">
			<state id="unknown" />
			<state id="known" />
			<parents>R_1_1</parents>
			<probabilities>1 0 0 1</probabilities>
		</cpt>
		<utility id="U_R_1_2">
			<parents>R_1_2</parents>
			<utilities>0 1</utilities>
		</utility>
		<cpt id="R_2_2">
			<state id="unknown" />
			<state id="known" />
			<parents>R_2_1</parents>
			<probabilities>1 0 0 1</probabilities>
		</cpt>
		<utility id="U_R_2_2">
			<parents>R_2_2</parents>
			<utilities>0 1</utilities>
		</utility>
		<cpt id="R_3_0">
			<state id="unknown" />
			<state id="known" />
			<probabilities>0.19 0.8100000000000001</probabilities>
		</cpt>
		<cpt id="R_3_1">
			<state id="unknown" />
			<state id="known" />
			<parents>R_3_0</parents>
			<probabilities>0.95 0.05 0 1</probabilities>
		</cpt>
		<cpt id="R_3_2">
			<state id="unknown" />
			<state id="known" />
			<parents>R_3_1</parents>
			<probabilities>1 0 0 1</probabilities>
		</cpt>
		<utility id="U_R_3_2">
			<parents>R_3_2</parents>
			<utilities>0 1</utilities>
		</utility>
		<cpt id="R_4_0">
			<state id="unknown" />
			<state id="known" />
			<probabilities>0.1899999999999999 0.8100000000000001</probabilities>
		</cpt>
		<cpt id="R_4_1">
			<state id="unknown" />
			<state id="known" />
			<parents>R_4_0</parents>
			<probabilities>0.95 0.05 0 1</probabilities>
		</cpt>
		<cpt id="R_4_2">
			<state id="unknown" />
			<state id="known" />
			<parents>R_4_1</parents>
			<probabilities>1 0 0 1</probabilities>
		</cpt>
		<utility id="U_R_4_2">
			<parents>R_4_2</parents>
			<utilities>0 1</utilities>
		</utility>
		<cpt id="R_5_0">
			<state id="unknown" />
			<state id="known" />
			<probabilities>0.19 0.8100000000000001</probabilities>
		</cpt>
		<cpt id="R_5_1">
			<state id="unknown" />
			<state id="known" />
			<parents>R_5_0</parents>
			<probabilities>0.95 0.05 0 1</probabilities>
		</cpt>
		<cpt id="R_5_2">
			<state id="unknown" />
			<state id="known" />
			<parents>R_5_1</parents>
			<probabilities>1 0 0 1</probabilities>
		</cpt>
		<utility id="U_R_5_2">
			<parents>R_5_2</parents>
			<utilities>0 1</utilities>
		</utility>
		<cpt id="R_6_0">
			<state id="unknown" />
			<state id="known" />
			<probabilities>0.19 0.8100000000000001</probabilities>
		</cpt>
		<cpt id="R_6_1">
			<state id="unknown" />
			<state id="known" />
			<parents>R_6_0</parents>
			<probabilities>0.95 0.05 0 1</probabilities>
		</cpt>
		<cpt id="R_6_2">
			<state id="unknown" />
			<state id="known" />
			<parents>R_6_1</parents>
			<probabilities>1 0 0 1</probabilities>
		</cpt>
		<utility id="U_R_6_2">
			<parents>R_6_2</parents>
			<utilities>0 1</utilities>
		</utility>
		<cpt id="R_7_0">
			<state id="unknown" />
			<state id="known" />
			<probabilities>0.19 0.8100000000000001</probabilities>
		</cpt>
		<cpt id="R_7_1">
			<state id="unknown" />
			<state id="known" />
			<parents>R_7_0</parents>
			<probabilities>0.95 0.05 0 1</probabilities>
		</cpt>
		<cpt id="R_7_2">
			<state id="unknown" />
			<state id="known" />
			<parents>R_7_1</parents>
			<probabilities>1 0 0 1</probabilities>
		</cpt>
		<utility id="U_R_7_2">
			<parents>R_7_2</parents>
			<utilities>0 1</utilities>
		</utility>
		<cpt id="R_8_0">
			<state id="unknown" />
			<state id="known" />
			<probabilities>0.1899999999999999 0.8100000000000001</probabilities>
		</cpt>
		<cpt id="R_8_1">
			<state id="unknown" />
			<state id="known" />
			<parents>R_8_0</parents>
			<probabilities>0.95 0.05 0 1</probabilities>
		</cpt>
		<cpt id="R_8_2">
			<state id="unknown" />
			<state id="known" />
			<parents>R_8_1</parents>
			<probabilities>1 0 0 1</probabilities>
		</cpt>
		<utility id="U_R_8_2">
			<parents>R_8_2</parents>
			<utilities>0 1</utilities>
		</utility>
		<cpt id="R_9_0">
			<state id="unknown" />
			<state id="known" />
			<probabilities>0.19 0.8100000000000001</probabilities>
		</cpt>
		<cpt id="R_9_1">
			<state id="unknown" />
			<state id="known" />
			<parents>R_9_0</parents>
			<probabilities>0.95 0.05 0 1</probabilities>
		</cpt>
		<cpt id="R_9_2">
			<state id="unknown" />
			<state id="known" />
			<parents>R_9_1</parents>
			<probabilities>1 0 0 1</probabilities>
		</cpt>
		<utility id="U_R_9_2">
			<parents>R_9_2</parents>
			<utilities>0 1</utilities>
		</utility>
		<cpt id="R_10_0">
			<state id="unknown" />
			<state id="known" />
			<probabilities>0.19 0.8100000000000001</probabilities>
		</cpt>
		<cpt id="R_10_1">
			<state id="unknown" />
			<state id="known" />
			<parents>R_10_0</parents>
			<probabilities>0.95 0.05 0 1</probabilities>
		</cpt>
		<cpt id="R_10_2">
			<state id="unknown" />
			<state id="known" />
			<parents>R_10_1</parents>
			<probabilities>1 0 0 1</probabilities>
		</cpt>
		<utility id="U_R_10_2">
			<parents>R_10_2</parents>
			<utilities>0 1</utilities>
		</utility>
		<cpt id="R_11_0">
			<state id="unknown" />
			<state id="known" />
			<probabilities>0.19 0.8100000000000001</probabilities>
		</cpt>
		<cpt id="R_11_1">
			<state id="unknown" />
			<state id="known" />
			<parents>R_11_0</parents>
			<probabilities>0.95 0.05 0 1</probabilities>
		</cpt>
		<cpt id="R_11_2">
			<state id="unknown" />
			<state id="known" />
			<parents>R_11_1</parents>
			<probabilities>1 0 0 1</probabilities>
		</cpt>
		<utility id="U_R_11_2">
			<parents>R_11_2</parents>
			<utilities>0 1</utilities>
		</utility>
		<cpt id="R_12_0">
			<state id="unknown" />
			<state id="known" />
			<probabilities>0.1899999999999999 0.8100000000000002</probabilities>
		</cpt>
		<cpt id="R_12_1">
			<state id="unknown" />
			<state id="known" />
			<parents>R_12_0</parents>
			<probabilities>0.95 0.05 0 1</probabilities>
		</cpt>
		<cpt id="R_12_2">
			<state id="unknown" />
			<state id="known" />
			<parents>R_12_1</parents>
			<probabilities>1 0 0 1</probabilities>
		</cpt>
		<utility id="U_R_12_2">
			<parents>R_12_2</parents>
			<utilities>0 1</utilities>
		</utility>
		<cpt id="S_G_0_2">
			<state id="unknown" />
			<state id="known" />
			<parents>S_G_0_1</parents>
			<probabilities>0.2 0.8 0 1</probabilities>
		</cpt>
		<cpt id="RS_G_0_0">
			<state id="not_ready" />
			<state id="complete" />
			<state id="ready" />
			<state id="relevant" />
			<probabilities>0 1 0 0</probabilities>
		</cpt>
		<cpt id="RS_G_0_1">
			<state id="not_ready" />
			<state id="complete" />
			<state id="ready" />
			<state id="relevant" />
			<parents>RS_G_0_0</parents>
			<probabilities>1 0 0 0 0 1 0 0 0 0 1 0 0 0 0.5 0.5</probabilities>
		</cpt>
		<cpt id="RS_G_0_2">
			<state id="not_ready" />
			<state id="complete" />
			<state id="ready" />
			<state id="relevant" />
			<parents>RS_G_0_1</parents>
			<probabilities>1 0 0 0 0 1 0 0 0 0 1 0 0 0 0.5 0.5</probabilities>
		</cpt>
		<utility id="U_RS_G_0_2">
			<parents>RS_G_0_2</parents>
			<utilities>0 1 0 0</utilities>
		</utility>
		<cpt id="S_G_1_2">
			<state id="unknown" />
			<state id="known" />
			<parents>S_G_1_1 R_1_2 S_G_0_2</parents>
			<probabilities>1 0 1 0 1 0 0.2 0.8 0 1 0 1 0 1 0 1</probabilities>
		</cpt>
		<cpt id="RS_G_1_0">
			<state id="not_ready" />
			<state id="complete" />
			<state id="ready" />
			<state id="relevant" />
			<probabilities>0 1 0 0</probabilities>
		</cpt>
		<cpt id="RS_G_1_1">
			<state id="not_ready" />
			<state id="complete" />
			<state id="ready" />
			<state id="relevant" />
			<parents>RS_G_1_0</parents>
			<probabilities>1 0 0 0 0 1 0 0 0 0 1 0 0 0 0.5 0.5</probabilities>
		</cpt>
		<cpt id="RS_G_1_2">
			<state id="not_ready" />
			<state id="complete" />
			<state id="ready" />
			<state id="relevant" />
			<parents>RS_G_1_1 RS_G_0_2</parents>
			<probabilities>1 0 0 0 0 0 0.09999999999999998 0.9 1 0 0 0 1 0 0 0 0 1 0 0 0 1 0 0 0 1 0 0 0 1 0 0 0 0 1 0 0 0 1 0 0 0 1 0 0 0 1 0 0 0 0.5 0.5 0 0 0.5 0.5 0 0 0.5 0.5 0 0 0.5 0.5</probabilities>
		</cpt>
		<utility id="U_RS_G_1_2">
			<parents>RS_G_1_2</parents>
			<utilities>0 1 0 0</utilities>
		</utility>
		<deterministic id="FS_G_2_2">
			<state id="no_match" />
			<state id="match" />
			<parents>stTopic_2</parents>
			<resultingstates>no_match match</resultingstates>
		</deterministic>
		<cpt id="S_G_2_2">
			<state id="unknown" />
			<state id="known" />
			<parents>S_G_2_1 FS_G_2_2 stType_2 R_2_2 S_G_1_2</parents>
			<probabilities>1 0 1 0 1 0 0.2 0.8 1 0 1 0 1 0 0.2 0.8 1 0 1 0 1 0 0.2 0.8 1 0 1 0 1 0 0.2 0.8 1 0 1 0 1 0 0.2 0.8 1 0 1 0 1 0 0.2 0.8 0.8 0.2 0.8 0.2 0.8 0.2 0.09999999999999998 0.9 1 0 1 0 1 0 0.2 0.8 0 1 0 1 0 1 0 1 0 1 0 1 0 1 0 1 0 1 0 1 0 1 0 1 0 1 0 1 0 1 0 1 0 1 0 1 0 1 0 1 0 1 0 1 0 1 0 1 0 1 0 1 0 1 0 1 0 1 0 1 0 1 0 1</probabilities>
		</cpt>
		<deterministic id="FRS_G_2_2">
			<state id="no_match" />
			<state id="match" />
			<parents>stTopic_2</parents>
			<resultingstates>no_match match</resultingstates>
		</deterministic>
		<cpt id="RS_G_2_2">
			<state id="not_ready" />
			<state id="complete" />
			<state id="ready" />
			<state id="relevant" />
			<parents>RS_G_2_1 FRS_G_2_2 stType_2 RS_G_1_2</parents>
			<probabilities>1 0 0 0 0 0 0.09999999999999998 0.9 1 0 0 0 1 0 0 0 1 0 0 0 0 0 0.09999999999999998 0.9 1 0 0 0 1 0 0 0 1 0 0 0 0 0 0.09999999999999998 0.9 1 0 0 0 1 0 0 0 1 0 0 0 0 0 0.09999999999999998 0.9 1 0 0 0 1 0 0 0 1 0 0 0 0 0 0.09999999999999998 0.9 1 0 0 0 1 0 0 0 1 0 0 0 0 0 0.09999999999999998 0.9 1 0 0 0 1 0 0 0 1 0 0 0 0 0 0.09999999999999998 0.9 1 0 0 0 1 0 0 0 0 1 0 0 0 1 0 0 0 1 0 0 0 1 0 0 0 1 0 0 0 1 0 0 0 1 0 0 0 1 0 0 0 1 0 0 0 1 0 0 0 1 0 0 0 1 0 0 0 1 0 0 0 1 0 0 0 1 0 0 0 1 0 0 0 1 0 0 0 1 0 0 0 1 0 0 0 1 0 0 0 1 0 0 0 1 0 0 0 1 0 0 0 1 0 0 0 1 0 0 0 1 0 0 0 1 0 0 0 1 0 0 0 1 0 0 0 1 0 0 0 1 0 0 0 1 0 0 0 1 0 0 0 1 0 0 0 1 0 0 0 1 0 0 0 0 1 0 0 0 1 0 0 0 1 0 0 0 1 0 0 0 1 0 0 0 1 0 0 0 1 0 0 0 1 0 0 0 1 0 0 0 1 0 0 0 1 0 0 0 1 0 0 0 1 0 0 0 1 0 0 0 1 0 0 0 1 0 0 0 0.3 0.7 0 0 0.3 0.7 0 0 0.3 0.7 0 0 0.3 0.7 0 0 0 1 0 0 0 1 0 0 0 1 0 0 0 1 0 0 0.09999999999999998 0.9 0 0 0.09999999999999998 0.9 0 0 0.09999999999999998 0.9 0 0 0.09999999999999998 0.9 0 1 0 0 0 1 0 0 0 1 0 0 0 1 0 0 0 0 0.5 0.5 0 0 0.5 0.5 0 0 0.5 0.5 0 0 0.5 0.5 0 0 0.5 0.5 0 0 0.5 0.5 0 0 0.5 0.5 0 0 0.5 0.5 0 0 0.5 0.5 0 0 0.5 0.5 0 0 0.5 0.5 0 0 0.5 0.5 0 0 0.5 0.5 0 0 0.5 0.5 0 0 0.5 0.5 0 0 0.5 0.5 0 0 0.3 0.7 0 0 0.3 0.7 0 0 0.3 0.7 0 0 0.3 0.7 0 0 0 1 0 0 0 1 0 0 0 1 0 0 0 1 0 0 0.09999999999999998 0.9 0 0 0.09999999999999998 0.9 0 0 0.09999999999999998 0.9 0 0 0.09999999999999998 0.9 0 1 0 0 0 1 0 0 0 1 0 0 0 1 0 0</probabilities>
		</cpt>
		<utility id="U_RS_G_2_2">
			<parents>RS_G_2_2</parents>
			<utilities>0 1 0 0</utilities>
		</utility>
		<cpt id="S_G_3_0">
			<state id="unknown" />
			<state id="known" />
			<probabilities>0.8193932077085515 0.1806067922914484</probabilities>
		</cpt>
		<cpt id="S_G_3_1">
			<state id="unknown" />
			<state id="known" />
			<parents>S_G_3_0 R_3_1 S_G_2_1</parents>
			<probabilities>1 0 1 0 1 0 0.09999999999999998 0.9 0 1 0 1 0 1 0 1</probabilities>
		</cpt>
		<cpt id="S_G_3_2">
			<state id="unknown" />
			<state id="known" />
			<parents>S_G_3_1 R_3_2 S_G_2_2</parents>
			<probabilities>1 0 1 0 1 0 0.2 0.8 0 1 0 1 0 1 0 1</probabilities>
		</cpt>
		<cpt id="RS_G_3_0">
			<state id="not_ready" />
			<state id="complete" />
			<state id="ready" />
			<state id="relevant" />
			<probabilities>1 0 0 0</probabilities>
		</cpt>
		<cpt id="RS_G_3_1">
			<state id="not_ready" />
			<state id="complete" />
			<state id="ready" />
			<state id="relevant" />
			<parents>RS_G_3_0</parents>
			<probabilities>1 0 0 0 0 1 0 0 0 0 1 0 0 0 0.5 0.5</probabilities>
		</cpt>
		<cpt id="RS_G_3_2">
			<state id="not_ready" />
			<state id="complete" />
			<state id="ready" />
			<state id="relevant" />
			<parents>RS_G_3_1 RS_G_2_2</parents>
			<probabilities>1 0 0 0 0 0 0.09999999999999998 0.9 1 0 0 0 1 0 0 0 0 1 0 0 0 1 0 0 0 1 0 0 0 1 0 0 0 0 1 0 0 0 1 0 0 0 1 0 0 0 1 0 0 0 0.5 0.5 0 0 0.5 0.5 0 0 0.5 0.5 0 0 0.5 0.5</probabilities>
		</cpt>
		<utility id="U_RS_G_3_2">
			<parents>RS_G_3_2</parents>
			<utilities>0 1 0 0</utilities>
		</utility>
		<cpt id="S_G_4_0">
			<state id="unknown" />
			<state id="known" />
			<probabilities>0.8605043999893907 0.1394956000106093</probabilities>
		</cpt>
		<cpt id="S_G_4_1">
			<state id="unknown" />
			<state id="known" />
			<parents>S_G_4_0 R_4_1 S_G_3_1</parents>
			<probabilities>1 0 1 0 1 0 0.09999999999999998 0.9 0 1 0 1 0 1 0 1</probabilities>
		</cpt>
		<cpt id="S_G_4_2">
			<state id="unknown" />
			<state id="known" />
			<parents>S_G_4_1 R_4_2 S_G_3_2</parents>
			<probabilities>1 0 1 0 1 0 0.2 0.8 0 1 0 1 0 1 0 1</probabilities>
		</cpt>
		<cpt id="RS_G_4_0">
			<state id="not_ready" />
			<state id="complete" />
			<state id="ready" />
			<state id="relevant" />
			<probabilities>1 0 0 0</probabilities>
		</cpt>
		<cpt id="RS_G_4_1">
			<state id="not_ready" />
			<state id="complete" />
			<state id="ready" />
			<state id="relevant" />
			<parents>RS_G_4_0</parents>
			<probabilities>1 0 0 0 0 1 0 0 0 0 1 0 0 0 0.5 0.5</probabilities>
		</cpt>
		<cpt id="RS_G_4_2">
			<state id="not_ready" />
			<state id="complete" />
			<state id="ready" />
			<state id="relevant" />
			<parents>RS_G_4_1 RS_G_3_2</parents>
			<probabilities>1 0 0 0 0 0 0.09999999999999998 0.9 1 0 0 0 1 0 0 0 0 1 0 0 0 1 0 0 0 1 0 0 0 1 0 0 0 0 1 0 0 0 1 0 0 0 1 0 0 0 1 0 0 0 0.5 0.5 0 0 0.5 0.5 0 0 0.5 0.5 0 0 0.5 0.5</probabilities>
		</cpt>
		<utility id="U_RS_G_4_2">
			<parents>RS_G_4_2</parents>
			<utilities>0 1 0 0</utilities>
		</utility>
		<cpt id="S_G_5_0">
			<state id="unknown" />
			<state id="known" />
			<probabilities>0.8932317626095329 0.1067682373904672</probabilities>
		</cpt>
		<cpt id="S_G_5_1">
			<state id="unknown" />
			<state id="known" />
			<parents>S_G_5_0 R_5_1 S_G_4_1</parents>
			<probabilities>1 0 1 0 1 0 0.09999999999999998 0.9 0 1 0 1 0 1 0 1</probabilities>
		</cpt>
		<cpt id="S_G_5_2">
			<state id="unknown" />
			<state id="known" />
			<parents>S_G_5_1 R_5_2 S_G_4_2</parents>
			<probabilities>1 0 1 0 1 0 0.2 0.8 0 1 0 1 0 1 0 1</probabilities>
		</cpt>
		<cpt id="RS_G_5_0">
			<state id="not_ready" />
			<state id="complete" />
			<state id="ready" />
			<state id="relevant" />
			<probabilities>1 0 0 0</probabilities>
		</cpt>
		<cpt id="RS_G_5_1">
			<state id="not_ready" />
			<state id="complete" />
			<state id="ready" />
			<state id="relevant" />
			<parents>RS_G_5_0</parents>
			<probabilities>1 0 0 0 0 1 0 0 0 0 1 0 0 0 0.5 0.5</probabilities>
		</cpt>
		<cpt id="RS_G_5_2">
			<state id="not_ready" />
			<state id="complete" />
			<state id="ready" />
			<state id="relevant" />
			<parents>RS_G_5_1 RS_G_4_2</parents>
			<probabilities>1 0 0 0 0 0 0.09999999999999998 0.9 1 0 0 0 1 0 0 0 0 1 0 0 0 1 0 0 0 1 0 0 0 1 0 0 0 0 1 0 0 0 1 0 0 0 1 0 0 0 1 0 0 0 0.5 0.5 0 0 0.5 0.5 0 0 0.5 0.5 0 0 0.5 0.5</probabilities>
		</cpt>
		<utility id="U_RS_G_5_2">
			<parents>RS_G_5_2</parents>
			<utilities>0 1 0 0</utilities>
		</utility>
		<cpt id="S_G_6_0">
			<state id="unknown" />
			<state id="known" />
			<probabilities>0.8193932077085515 0.1806067922914484</probabilities>
		</cpt>
		<cpt id="S_G_6_1">
			<state id="unknown" />
			<state id="known" />
			<parents>S_G_6_0 R_7_1 S_G_2_1</parents>
			<probabilities>1 0 1 0 1 0 0.09999999999999998 0.9 0 1 0 1 0 1 0 1</probabilities>
		</cpt>
		<cpt id="S_G_6_2">
			<state id="unknown" />
			<state id="known" />
			<parents>S_G_6_1 R_7_2 S_G_2_2</parents>
			<probabilities>1 0 1 0 1 0 0.2 0.8 0 1 0 1 0 1 0 1</probabilities>
		</cpt>
		<cpt id="RS_G_6_0">
			<state id="not_ready" />
			<state id="complete" />
			<state id="ready" />
			<state id="relevant" />
			<probabilities>1 0 0 0</probabilities>
		</cpt>
		<cpt id="RS_G_6_1">
			<state id="not_ready" />
			<state id="complete" />
			<state id="ready" />
			<state id="relevant" />
			<parents>RS_G_6_0</parents>
			<probabilities>1 0 0 0 0 1 0 0 0 0 1 0 0 0 0.5 0.5</probabilities>
		</cpt>
		<cpt id="RS_G_6_2">
			<state id="not_ready" />
			<state id="complete" />
			<state id="ready" />
			<state id="relevant" />
			<parents>RS_G_6_1 RS_G_2_2</parents>
			<probabilities>1 0 0 0 0 0 0.4 0.6 1 0 0 0 1 0 0 0 0 1 0 0 0 1 0 0 0 1 0 0 0 1 0 0 0 0 1 0 0 0 1 0 0 0 1 0 0 0 1 0 0 0 0.5 0.5 0 0 0.5 0.5 0 0 0.5 0.5 0 0 0.5 0.5</probabilities>
		</cpt>
		<utility id="U_RS_G_6_2">
			<parents>RS_G_6_2</parents>
			<utilities>0 1 0 0</utilities>
		</utility>
		<cpt id="S_G_7_0">
			<state id="unknown" />
			<state id="known" />
			<probabilities>0.8605043999893907 0.1394956000106093</probabilities>
		</cpt>
		<cpt id="S_G_7_1">
			<state id="unknown" />
			<state id="known" />
			<parents>S_G_7_0 R_8_1 S_G_6_1</parents>
			<probabilities>1 0 1 0 1 0 0.09999999999999998 0.9 0 1 0 1 0 1 0 1</probabilities>
		</cpt>
		<cpt id="S_G_7_2">
			<state id="unknown" />
			<state id="known" />
			<parents>S_G_7_1 R_8_2 S_G_6_2</parents>
			<probabilities>1 0 1 0 1 0 0.2 0.8 0 1 0 1 0 1 0 1</probabilities>
		</cpt>
		<cpt id="RS_G_7_0">
			<state id="not_ready" />
			<state id="complete" />
			<state id="ready" />
			<state id="relevant" />
			<probabilities>1 0 0 0</probabilities>
		</cpt>
		<cpt id="RS_G_7_1">
			<state id="not_ready" />
			<state id="complete" />
			<state id="ready" />
			<state id="relevant" />
			<parents>RS_G_7_0</parents>
			<probabilities>1 0 0 0 0 1 0 0 0 0 1 0 0 0 0.5 0.5</probabilities>
		</cpt>
		<cpt id="RS_G_7_2">
			<state id="not_ready" />
			<state id="complete" />
			<state id="ready" />
			<state id="relevant" />
			<parents>RS_G_7_1 RS_G_6_2</parents>
			<probabilities>1 0 0 0 0 0 0.09999999999999998 0.9 1 0 0 0 1 0 0 0 0 1 0 0 0 1 0 0 0 1 0 0 0 1 0 0 0 0 1 0 0 0 1 0 0 0 1 0 0 0 1 0 0 0 0.5 0.5 0 0 0.5 0.5 0 0 0.5 0.5 0 0 0.5 0.5</probabilities>
		</cpt>
		<utility id="U_RS_G_7_2">
			<parents>RS_G_7_2</parents>
			<utilities>0 1 0 0</utilities>
		</utility>
		<cpt id="S_G_8_0">
			<state id="unknown" />
			<state id="known" />
			<probabilities>0.8932317626095329 0.1067682373904672</probabilities>
		</cpt>
		<cpt id="S_G_8_1">
			<state id="unknown" />
			<state id="known" />
			<parents>S_G_8_0 R_9_1 S_G_7_1</parents>
			<probabilities>1 0 1 0 1 0 0.09999999999999998 0.9 0 1 0 1 0 1 0 1</probabilities>
		</cpt>
		<cpt id="S_G_8_2">
			<state id="unknown" />
			<state id="known" />
			<parents>S_G_8_1 R_9_2 S_G_7_2</parents>
			<probabilities>1 0 1 0 1 0 0.2 0.8 0 1 0 1 0 1 0 1</probabilities>
		</cpt>
		<cpt id="RS_G_8_0">
			<state id="not_ready" />
			<state id="complete" />
			<state id="ready" />
			<state id="relevant" />
			<probabilities>1 0 0 0</probabilities>
		</cpt>
		<cpt id="RS_G_8_1">
			<state id="not_ready" />
			<state id="complete" />
			<state id="ready" />
			<state id="relevant" />
			<parents>RS_G_8_0</parents>
			<probabilities>1 0 0 0 0 1 0 0 0 0 1 0 0 0 0.5 0.5</probabilities>
		</cpt>
		<cpt id="RS_G_8_2">
			<state id="not_ready" />
			<state id="complete" />
			<state id="ready" />
			<state id="relevant" />
			<parents>RS_G_8_1 RS_G_7_2</parents>
			<probabilities>1 0 0 0 0 0 0.09999999999999998 0.9 1 0 0 0 1 0 0 0 0 1 0 0 0 1 0 0 0 1 0 0 0 1 0 0 0 0 1 0 0 0 1 0 0 0 1 0 0 0 1 0 0 0 0.5 0.5 0 0 0.5 0.5 0 0 0.5 0.5 0 0 0.5 0.5</probabilities>
		</cpt>
		<utility id="U_RS_G_8_2">
			<parents>RS_G_8_2</parents>
			<utilities>0 1 0 0</utilities>
		</utility>
		<cpt id="S_E_0_0">
			<state id="unknown" />
			<state id="known" />
			<probabilities>0.9188767425935385 0.08112325740646152</probabilities>
		</cpt>
		<cpt id="S_E_0_1">
			<state id="unknown" />
			<state id="known" />
			<parents>S_E_0_0 R_10_1 S_G_5_1</parents>
			<probabilities>1 0 1 0 1 0 0.09999999999999998 0.9 0 1 0 1 0 1 0 1</probabilities>
		</cpt>
		<cpt id="S_E_0_2">
			<state id="unknown" />
			<state id="known" />
			<parents>S_E_0_1 R_10_2 S_G_5_2</parents>
			<probabilities>1 0 1 0 1 0 0.2 0.8 0 1 0 1 0 1 0 1</probabilities>
		</cpt>
		<cpt id="RS_E_0_0">
			<state id="not_ready" />
			<state id="complete" />
			<state id="ready" />
			<state id="relevant" />
			<probabilities>1 0 0 0</probabilities>
		</cpt>
		<cpt id="RS_E_0_1">
			<state id="not_ready" />
			<state id="complete" />
			<state id="ready" />
			<state id="relevant" />
			<parents>RS_E_0_0</parents>
			<probabilities>1 0 0 0 0 1 0 0 0 0 1 0 0 0 0.5 0.5</probabilities>
		</cpt>
		<cpt id="RS_E_0_2">
			<state id="not_ready" />
			<state id="complete" />
			<state id="ready" />
			<state id="relevant" />
			<parents>RS_E_0_1 RS_G_5_2</parents>
			<probabilities>1 0 0 0 0 0 0.09999999999999998 0.9 1 0 0 0 1 0 0 0 0 1 0 0 0 1 0 0 0 1 0 0 0 1 0 0 0 0 1 0 0 0 1 0 0 0 1 0 0 0 1 0 0 0 0.5 0.5 0 0 0.5 0.5 0 0 0.5 0.5 0 0 0.5 0.5</probabilities>
		</cpt>
		<utility id="U_RS_E_0_2">
			<parents>RS_E_0_2</parents>
			<utilities>0 1 0 0</utilities>
		</utility>
		<cpt id="S_E_1_0">
			<state id="unknown" />
			<state id="known" />
			<probabilities>0.9387297357486599 0.06127026425133995</probabilities>
		</cpt>
		<cpt id="S_E_1_1">
			<state id="unknown" />
			<state id="known" />
			<parents>S_E_1_0 R_6_1 S_G_4_1 S_E_0_1</parents>
			<probabilities>1 0 1 0 1 0 1 0 1 0 1 0 1 0 0.09999999999999998 0.9 0 1 0 1 0 1 0 1 0 1 0 1 0 1 0 1</probabilities>
		</cpt>
		<cpt id="S_E_1_2">
			<state id="unknown" />
			<state id="known" />
			<parents>S_E_1_1 R_6_2 S_G_4_2 S_E_0_2</parents>
			<probabilities>1 0 1 0 1 0 1 0 1 0 1 0 1 0 0.2 0.8 0 1 0 1 0 1 0 1 0 1 0 1 0 1 0 1</probabilities>
		</cpt>
		<cpt id="RS_E_1_0">
			<state id="not_ready" />
			<state id="complete" />
			<state id="ready" />
			<state id="relevant" />
			<probabilities>1 0 0 0</probabilities>
		</cpt>
		<cpt id="RS_E_1_1">
			<state id="not_ready" />
			<state id="complete" />
			<state id="ready" />
			<state id="relevant" />
			<parents>RS_E_1_0</parents>
			<probabilities>1 0 0 0 0 1 0 0 0 0 1 0 0 0 0.5 0.5</probabilities>
		</cpt>
		<cpt id="RS_E_1_2">
			<state id="not_ready" />
			<state id="complete" />
			<state id="ready" />
			<state id="relevant" />
			<parents>RS_E_1_1 RS_G_4_2 RS_E_0_2</parents>
			<probabilities>1 0 0 0 1 0 0 0 1 0 0 0 1 0 0 0 1 0 0 0 0 0 0.09999999999999998 0.9 1 0 0 0 1 0 0 0 1 0 0 0 1 0 0 0 1 0 0 0 1 0 0 0 1 0 0 0 1 0 0 0 1 0 0 0 1 0 0 0 0 1 0 0 0 1 0 0 0 1 0 0 0 1 0 0 0 1 0 0 0 1 0 0 0 1 0 0 0 1 0 0 0 1 0 0 0 1 0 0 0 1 0 0 0 1 0 0 0 1 0 0 0 1 0 0 0 1 0 0 0 1 0 0 0 0 1 0 0 0 1 0 0 0 1 0 0 0 1 0 0 0 1 0 0 0 1 0 0 0 1 0 0 0 1 0 0 0 1 0 0 0 1 0 0 0 1 0 0 0 1 0 0 0 1 0 0 0 1 0 0 0 1 0 0 0 1 0 0 0 0.5 0.5 0 0 0.5 0.5 0 0 0.5 0.5 0 0 0.5 0.5 0 0 0.5 0.5 0 0 0.5 0.5 0 0 0.5 0.5 0 0 0.5 0.5 0 0 0.5 0.5 0 0 0.5 0.5 0 0 0.5 0.5 0 0 0.5 0.5 0 0 0.5 0.5 0 0 0.5 0.5 0 0 0.5 0.5 0 0 0.5 0.5</probabilities>
		</cpt>
		<utility id="U_RS_E_1_2">
			<parents>RS_E_1_2</parents>
			<utilities>0 1 0 0</utilities>
		</utility>
		<cpt id="S_E_2_0">
			<state id="unknown" />
			<state id="known" />
			<probabilities>0.9188767425935385 0.08112325740646151</probabilities>
		</cpt>
		<cpt id="S_E_2_1">
			<state id="unknown" />
			<state id="known" />
			<parents>S_E_2_0 R_10_1 S_G_8_1</parents>
			<probabilities>1 0 1 0 1 0 0.09999999999999998 0.9 0 1 0 1 0 1 0 1</probabilities>
		</cpt>
		<cpt id="S_E_2_2">
			<state id="unknown" />
			<state id="known" />
			<parents>S_E_2_1 R_10_2 S_G_8_2</parents>
			<probabilities>1 0 1 0 1 0 0.2 0.8 0 1 0 1 0 1 0 1</probabilities>
		</cpt>
		<cpt id="RS_E_2_0">
			<state id="not_ready" />
			<state id="complete" />
			<state id="ready" />
			<state id="relevant" />
			<probabilities>1 0 0 0</probabilities>
		</cpt>
		<cpt id="RS_E_2_1">
			<state id="not_ready" />
			<state id="complete" />
			<state id="ready" />
			<state id="relevant" />
			<parents>RS_E_2_0</parents>
			<probabilities>1 0 0 0 0 1 0 0 0 0 1 0 0 0 0.5 0.5</probabilities>
		</cpt>
		<cpt id="RS_E_2_2">
			<state id="not_ready" />
			<state id="complete" />
			<state id="ready" />
			<state id="relevant" />
			<parents>RS_E_2_1 RS_G_8_2</parents>
			<probabilities>1 0 0 0 0 0 0.09999999999999998 0.9 1 0 0 0 1 0 0 0 0 1 0 0 0 1 0 0 0 1 0 0 0 1 0 0 0 0 1 0 0 0 1 0 0 0 1 0 0 0 1 0 0 0 0.5 0.5 0 0 0.5 0.5 0 0 0.5 0.5 0 0 0.5 0.5</probabilities>
		</cpt>
		<utility id="U_RS_E_2_2">
			<parents>RS_E_2_2</parents>
			<utilities>0 1 0 0</utilities>
		</utility>
		<cpt id="S_E_3_0">
			<state id="unknown" />
			<state id="known" />
			<probabilities>0.9387297357486599 0.06127026425133995</probabilities>
		</cpt>
		<cpt id="S_E_3_1">
			<state id="unknown" />
			<state id="known" />
			<parents>S_E_3_0 R_11_1 S_G_7_1 S_E_2_1</parents>
			<probabilities>1 0 1 0 1 0 1 0 1 0 1 0 1 0 0.09999999999999998 0.9 0 1 0 1 0 1 0 1 0 1 0 1 0 1 0 1</probabilities>
		</cpt>
		<cpt id="S_E_3_2">
			<state id="unknown" />
			<state id="known" />
			<parents>S_E_3_1 R_11_2 S_G_7_2 S_E_2_2</parents>
			<probabilities>1 0 1 0 1 0 1 0 1 0 1 0 1 0 0.2 0.8 0 1 0 1 0 1 0 1 0 1 0 1 0 1 0 1</probabilities>
		</cpt>
		<cpt id="RS_E_3_0">
			<state id="not_ready" />
			<state id="complete" />
			<state id="ready" />
			<state id="relevant" />
			<probabilities>1 0 0 0</probabilities>
		</cpt>
		<cpt id="RS_E_3_1">
			<state id="not_ready" />
			<state id="complete" />
			<state id="ready" />
			<state id="relevant" />
			<parents>RS_E_3_0</parents>
			<probabilities>1 0 0 0 0 1 0 0 0 0 1 0 0 0 0.5 0.5</probabilities>
		</cpt>
		<cpt id="RS_E_3_2">
			<state id="not_ready" />
			<state id="complete" />
			<state id="ready" />
			<state id="relevant" />
			<parents>RS_E_3_1 RS_G_7_2 RS_E_2_2</parents>
			<probabilities>1 0 0 0 1 0 0 0 1 0 0 0 1 0 0 0 1 0 0 0 0 0 0.09999999999999998 0.9 1 0 0 0 1 0 0 0 1 0 0 0 1 0 0 0 1 0 0 0 1 0 0 0 1 0 0 0 1 0 0 0 1 0 0 0 1 0 0 0 0 1 0 0 0 1 0 0 0 1 0 0 0 1 0 0 0 1 0 0 0 1 0 0 0 1 0 0 0 1 0 0 0 1 0 0 0 1 0 0 0 1 0 0 0 1 0 0 0 1 0 0 0 1 0 0 0 1 0 0 0 1 0 0 0 0 1 0 0 0 1 0 0 0 1 0 0 0 1 0 0 0 1 0 0 0 1 0 0 0 1 0 0 0 1 0 0 0 1 0 0 0 1 0 0 0 1 0 0 0 1 0 0 0 1 0 0 0 1 0 0 0 1 0 0 0 1 0 0 0 0.5 0.5 0 0 0.5 0.5 0 0 0.5 0.5 0 0 0.5 0.5 0 0 0.5 0.5 0 0 0.5 0.5 0 0 0.5 0.5 0 0 0.5 0.5 0 0 0.5 0.5 0 0 0.5 0.5 0 0 0.5 0.5 0 0 0.5 0.5 0 0 0.5 0.5 0 0 0.5 0.5 0 0 0.5 0.5 0 0 0.5 0.5</probabilities>
		</cpt>
		<utility id="U_RS_E_3_2">
			<parents>RS_E_3_2</parents>
			<utilities>0 1 0 0</utilities>
		</utility>
		<cpt id="S_E_4_0">
			<state id="unknown" />
			<state id="known" />
			<probabilities>0.9850010538867376 0.01499894611326244</probabilities>
		</cpt>
		<cpt id="S_E_4_1">
			<state id="unknown" />
			<state id="known" />
			<parents>S_E_4_0 R_12_1 S_G_2_1 S_E_1_1 S_E_3_1</parents>
			<probabilities>1 0 1 0 1 0 1 0 1 0 1 0 1 0 1 0 1 0 1 0 1 0 1 0 1 0 1 0 1 0 0.09999999999999998 0.9 0 1 0 1 0 1 0 1 0 1 0 1 0 1 0 1 0 1 0 1 0 1 0 1 0 1 0 1 0 1 0 1</probabilities>
		</cpt>
		<cpt id="S_E_4_2">
			<state id="unknown" />
			<state id="known" />
			<parents>S_E_4_1 R_12_2 S_G_2_2 S_E_1_2 S_E_3_2</parents>
			<probabilities>1 0 1 0 1 0 1 0 1 0 1 0 1 0 1 0 1 0 1 0 1 0 1 0 1 0 1 0 1 0 0.2 0.8 0 1 0 1 0 1 0 1 0 1 0 1 0 1 0 1 0 1 0 1 0 1 0 1 0 1 0 1 0 1 0 1</probabilities>
		</cpt>
		<cpt id="RS_E_4_0">
			<state id="not_ready" />
			<state id="complete" />
			<state id="ready" />
			<state id="relevant" />
			<probabilities>1 0 0 0</probabilities>
		</cpt>
		<cpt id="RS_E_4_1">
			<state id="not_ready" />
			<state id="complete" />
			<state id="ready" />
			<state id="relevant" />
			<parents>RS_E_4_0</parents>
			<probabilities>1 0 0 0 0 1 0 0 0 0 1 0 0 0 0.5 0.5</probabilities>
		</cpt>
		<cpt id="RS_E_4_2">
			<state id="not_ready" />
			<state id="complete" />
			<state id="ready" />
			<state id="relevant" />
			<parents>RS_E_4_1 RS_G_2_2 RS_E_1_2 RS_E_3_2</parents>
			<probabilities>1 0 0 0 1 0 0 0 1 0 0 0 1 0 0 0 1 0 0 0 1 0 0 0 1 0 0 0 1 0 0 0 1 0 0 0 1 0 0 0 1 0 0 0 1 0 0 0 1 0 0 0 1 0 0 0 1 0 0 0 1 0 0 0 1 0 0 0 1 0 0 0 1 0 0 0 1 0 0 0 1 0 0 0 0 0 0.09999999999999998 0.9 1 0 0 0 1 0 0 0 1 0 0 0 1 0 0 0 1 0 0 0 1 0 0 0 1 0 0 0 1 0 0 0 1 0 0 0 1 0 0 0 1 0 0 0 1 0 0 0 1 0 0 0 1 0 0 0 1 0 0 0 1 0 0 0 1 0 0 0 1 0 0 0 1 0 0 0 1 0 0 0 1 0 0 0 1 0 0 0 1 0 0 0 1 0 0 0 1 0 0 0 1 0 0 0 1 0 0 0 1 0 0 0 1 0 0 0 1 0 0 0 1 0 0 0 1 0 0 0 1 0 0 0 1 0 0 0 1 0 0 0 1 0 0 0 1 0 0 0 1 0 0 0 1 0 0 0 1 0 0 0 1 0 0 0 1 0 0 0 0 1 0 0 0 1 0 0 0 1 0 0 0 1 0 0 0 1 0 0 0 1 0 0 0 1 0 0 0 1 0 0 0 1 0 0 0 1 0 0 0 1 0 0 0 1 0 0 0 1 0 0 0 1 0 0 0 1 0 0 0 1 0 0 0 1 0 0 0 1 0 0 0 1 0 0 0 1 0 0 0 1 0 0 0 1 0 0 0 1 0 0 0 1 0 0 0 1 0 0 0 1 0 0 0 1 0 0 0 1 0 0 0 1 0 0 0 1 0 0 0 1 0 0 0 1 0 0 0 1 0 0 0 1 0 0 0 1 0 0 0 1 0 0 0 1 0 0 0 1 0 0 0 1 0 0 0 1 0 0 0 1 0 0 0 1 0 0 0 1 0 0 0 1 0 0 0 1 0 0 0 1 0 0 0 1 0 0 0 1 0 0 0 1 0 0 0 1 0 0 0 1 0 0 0 1 0 0 0 1 0 0 0 1 0 0 0 1 0 0 0 1 0 0 0 1 0 0 0 1 0 0 0 1 0 0 0 1 0 0 0 1 0 0 0 1 0 0 0 1 0 0 0 1 0 0 0 0 1 0 0 0 1 0 0 0 1 0 0 0 1 0 0 0 1 0 0 0 1 0 0 0 1 0 0 0 1 0 0 0 1 0 0 0 1 0 0 0 1 0 0 0 1 0 0 0 1 0 0 0 1 0 0 0 1 0 0 0 1 0 0 0 1 0 0 0 1 0 0 0 1 0 0 0 1 0 0 0 1 0 0 0 1 0 0 0 1 0 0 0 1 0 0 0 1 0 0 0 1 0 0 0 1 0 0 0 1 0 0 0 1 0 0 0 1 0 0 0 1 0 0 0 1 0 0 0 1 0 0 0 1 0 0 0 1 0 0 0 1 0 0 0 1 0 0 0 1 0 0 0 1 0 0 0 1 0 0 0 1 0 0 0 1 0 0 0 1 0 0 0 1 0 0 0 1 0 0 0 1 0 0 0 1 0 0 0 1 0 0 0 1 0 0 0 1 0 0 0 1 0 0 0 1 0 0 0 1 0 0 0 1 0 0 0 1 0 0 0 1 0 0 0 1 0 0 0 1 0 0 0 1 0 0 0 1 0 0 0 1 0 0 0 1 0 0 0 1 0 0 0 1 0 0 0 0.5 0.5 0 0 0.5 0.5 0 0 0.5 0.5 0 0 0.5 0.5 0 0 0.5 0.5 0 0 0.5 0.5 0 0 0.5 0.5 0 0 0.5 0.5 0 0 0.5 0.5 0 0 0.5 0.5 0 0 0.5 0.5 0 0 0.5 0.5 0 0 0.5 0.5 0 0 0.5 0.5 0 0 0.5 0.5 0 0 0.5 0.5 0 0 0.5 0.5 0 0 0.5 0.5 0 0 0.5 0.5 0 0 0.5 0.5 0 0 0.5 0.5 0 0 0.5 0.5 0 0 0.5 0.5 0 0 0.5 0.5 0 0 0.5 0.5 0 0 0.5 0.5 0 0 0.5 0.5 0 0 0.5 0.5 0 0 0.5 0.5 0 0 0.5 0.5 0 0 0.5 0.5 0 0 0.5 0.5 0 0 0.5 0.5 0 0 0.5 0.5 0 0 0.5 0.5 0 0 0.5 0.5 0 0 0.5 0.5 0 0 0.5 0.5 0 0 0.5 0.5 0 0 0.5 0.5 0 0 0.5 0.5 0 0 0.5 0.5 0 0 0.5 0.5 0 0 0.5 0.5 0 0 0.5 0.5 0 0 0.5 0.5 0 0 0.5 0.5 0 0 0.5 0.5 0 0 0.5 0.5 0 0 0.5 0.5 0 0 0.5 0.5 0 0 0.5 0.5 0 0 0.5 0.5 0 0 0.5 0.5 0 0 0.5 0.5 0 0 0.5 0.5 0 0 0.5 0.5 0 0 0.5 0.5 0 0 0.5 0.5 0 0 0.5 0.5 0 0 0.5 0.5 0 0 0.5 0.5 0 0 0.5 0.5 0 0 0.5 0.5</probabilities>
		</cpt>
		<utility id="U_RS_E_4_2">
			<parents>RS_E_4_2</parents>
			<utilities>0 1 0 0</utilities>
		</utility>
		<cpt id="S_E_5_0">
			<state id="unknown" />
			<state id="known" />
			<probabilities>0 1</probabilities>
		</cpt>
		<cpt id="S_E_5_1">
			<state id="unknown" />
			<state id="known" />
			<parents>S_E_5_0</parents>
			<probabilities>0.09999999999999998 0.9 0 1</probabilities>
		</cpt>
		<cpt id="S_E_5_2">
			<state id="unknown" />
			<state id="known" />
			<parents>S_E_5_1</parents>
			<probabilities>0.2 0.8 0 1</probabilities>
		</cpt>
		<cpt id="RS_E_5_0">
			<state id="not_ready" />
			<state id="complete" />
			<state id="ready" />
			<state id="relevant" />
			<probabilities>0 1 0 0</probabilities>
		</cpt>
		<cpt id="RS_E_5_1">
			<state id="not_ready" />
			<state id="complete" />
			<state id="ready" />
			<state id="relevant" />
			<parents>RS_E_5_0</parents>
			<probabilities>1 0 0 0 0 1 0 0 0 0 1 0 0 0 0.5 0.5</probabilities>
		</cpt>
		<cpt id="RS_E_5_2">
			<state id="not_ready" />
			<state id="complete" />
			<state id="ready" />
			<state id="relevant" />
			<parents>RS_E_5_1</parents>
			<probabilities>1 0 0 0 0 1 0 0 0 0 1 0 0 0 0.5 0.5</probabilities>
		</cpt>
		<utility id="U_RS_E_5_2">
			<parents>RS_E_5_2</parents>
			<utilities>0 1 0 0</utilities>
		</utility>
		<cpt id="S_E_6_0">
			<state id="unknown" />
			<state id="known" />
			<probabilities>0.9891051186043622 0.01089488139563774</probabilities>
		</cpt>
		<cpt id="S_E_6_1">
			<state id="unknown" />
			<state id="known" />
			<parents>S_E_6_0 R_0_1 S_G_0_1 S_E_4_1 S_E_5_1</parents>
			<probabilities>1 0 1 0 1 0 1 0 1 0 1 0 1 0 1 0 1 0 1 0 1 0 1 0 1 0 1 0 1 0 0.09999999999999998 0.9 0 1 0 1 0 1 0 1 0 1 0 1 0 1 0 1 0 1 0 1 0 1 0 1 0 1 0 1 0 1 0 1</probabilities>
		</cpt>
		<cpt id="S_E_6_2">
			<state id="unknown" />
			<state id="known" />
			<parents>S_E_6_1 R_0_2 S_G_0_2 S_E_4_2 S_E_5_2</parents>
			<probabilities>1 0 1 0 1 0 1 0 1 0 1 0 1 0 1 0 1 0 1 0 1 0 1 0 1 0 1 0 1 0 0.2 0.8 0 1 0 1 0 1 0 1 0 1 0 1 0 1 0 1 0 1 0 1 0 1 0 1 0 1 0 1 0 1 0 1</probabilities>
		</cpt>
		<cpt id="RS_E_6_0">
			<state id="not_ready" />
			<state id="complete" />
			<state id="ready" />
			<state id="relevant" />
			<probabilities>1 0 0 0</probabilities>
		</cpt>
		<cpt id="RS_E_6_1">
			<state id="not_ready" />
			<state id="complete" />
			<state id="ready" />
			<state id="relevant" />
			<parents>RS_E_6_0</parents>
			<probabilities>1 0 0 0 0 1 0 0 0 0 1 0 0 0 0.5 0.5</probabilities>
		</cpt>
		<cpt id="RS_E_6_2">
			<state id="not_ready" />
			<state id="complete" />
			<state id="ready" />
			<state id="relevant" />
			<parents>RS_E_6_1 RS_G_0_2 RS_E_4_2 RS_E_5_2</parents>
			<probabilities>1 0 0 0 1 0 0 0 1 0 0 0 1 0 0 0 1 0 0 0 1 0 0 0 1 0 0 0 1 0 0 0 1 0 0 0 1 0 0 0 1 0 0 0 1 0 0 0 1 0 0 0 1 0 0 0 1 0 0 0 1 0 0 0 1 0 0 0 1 0 0 0 1 0 0 0 1 0 0 0 1 0 0 0 0 0 0.09999999999999998 0.9 1 0 0 0 1 0 0 0 1 0 0 0 1 0 0 0 1 0 0 0 1 0 0 0 1 0 0 0 1 0 0 0 1 0 0 0 1 0 0 0 1 0 0 0 1 0 0 0 1 0 0 0 1 0 0 0 1 0 0 0 1 0 0 0 1 0 0 0 1 0 0 0 1 0 0 0 1 0 0 0 1 0 0 0 1 0 0 0 1 0 0 0 1 0 0 0 1 0 0 0 1 0 0 0 1 0 0 0 1 0 0 0 1 0 0 0 1 0 0 0 1 0 0 0 1 0 0 0 1 0 0 0 1 0 0 0 1 0 0 0 1 0 0 0 1 0 0 0 1 0 0 0 1 0 0 0 1 0 0 0 1 0 0 0 1 0 0 0 0 1 0 0 0 1 0 0 0 1 0 0 0 1 0 0 0 1 0 0 0 1 0 0 0 1 0 0 0 1 0 0 0 1 0 0 0 1 0 0 0 1 0 0 0 1 0 0 0 1 0 0 0 1 0 0 0 1 0 0 0 1 0 0 0 1 0 0 0 1 0 0 0 1 0 0 0 1 0 0 0 1 0 0 0 1 0 0 0 1 0 0 0 1 0 0 0 1 0 0 0 1 0 0 0 1 0 0 0 1 0 0 0 1 0 0 0 1 0 0 0 1 0 0 0 1 0 0 0 1 0 0 0 1 0 0 0 1 0 0 0 1 0 0 0 1 0 0 0 1 0 0 0 1 0 0 0 1 0 0 0 1 0 0 0 1 0 0 0 1 0 0 0 1 0 0 0 1 0 0 0 1 0 0 0 1 0 0 0 1 0 0 0 1 0 0 0 1 0 0 0 1 0 0 0 1 0 0 0 1 0 0 0 1 0 0 0 1 0 0 0 1 0 0 0 1 0 0 0 1 0 0 0 1 0 0 0 1 0 0 0 1 0 0 0 1 0 0 0 1 0 0 0 1 0 0 0 0 1 0 0 0 1 0 0 0 1 0 0 0 1 0 0 0 1 0 0 0 1 0 0 0 1 0 0 0 1 0 0 0 1 0 0 0 1 0 0 0 1 0 0 0 1 0 0 0 1 0 0 0 1 0 0 0 1 0 0 0 1 0 0 0 1 0 0 0 1 0 0 0 1 0 0 0 1 0 0 0 1 0 0 0 1 0 0 0 1 0 0 0 1 0 0 0 1 0 0 0 1 0 0 0 1 0 0 0 1 0 0 0 1 0 0 0 1 0 0 0 1 0 0 0 1 0 0 0 1 0 0 0 1 0 0 0 1 0 0 0 1 0 0 0 1 0 0 0 1 0 0 0 1 0 0 0 1 0 0 0 1 0 0 0 1 0 0 0 1 0 0 0 1 0 0 0 1 0 0 0 1 0 0 0 1 0 0 0 1 0 0 0 1 0 0 0 1 0 0 0 1 0 0 0 1 0 0 0 1 0 0 0 1 0 0 0 1 0 0 0 1 0 0 0 1 0 0 0 1 0 0 0 1 0 0 0 1 0 0 0 1 0 0 0 1 0 0 0 1 0 0 0 1 0 0 0 0.5 0.5 0 0 0.5 0.5 0 0 0.5 0.5 0 0 0.5 0.5 0 0 0.5 0.5 0 0 0.5 0.5 0 0 0.5 0.5 0 0 0.5 0.5 0 0 0.5 0.5 0 0 0.5 0.5 0 0 0.5 0.5 0 0 0.5 0.5 0 0 0.5 0.5 0 0 0.5 0.5 0 0 0.5 0.5 0 0 0.5 0.5 0 0 0.5 0.5 0 0 0.5 0.5 0 0 0.5 0.5 0 0 0.5 0.5 0 0 0.5 0.5 0 0 0.5 0.5 0 0 0.5 0.5 0 0 0.5 0.5 0 0 0.5 0.5 0 0 0.5 0.5 0 0 0.5 0.5 0 0 0.5 0.5 0 0 0.5 0.5 0 0 0.5 0.5 0 0 0.5 0.5 0 0 0.5 0.5 0 0 0.5 0.5 0 0 0.5 0.5 0 0 0.5 0.5 0 0 0.5 0.5 0 0 0.5 0.5 0 0 0.5 0.5 0 0 0.5 0.5 0 0 0.5 0.5 0 0 0.5 0.5 0 0 0.5 0.5 0 0 0.5 0.5 0 0 0.5 0.5 0 0 0.5 0.5 0 0 0.5 0.5 0 0 0.5 0.5 0 0 0.5 0.5 0 0 0.5 0.5 0 0 0.5 0.5 0 0 0.5 0.5 0 0 0.5 0.5 0 0 0.5 0.5 0 0 0.5 0.5 0 0 0.5 0.5 0 0 0.5 0.5 0 0 0.5 0.5 0 0 0.5 0.5 0 0 0.5 0.5 0 0 0.5 0.5 0 0 0.5 0.5 0 0 0.5 0.5 0 0 0.5 0.5 0 0 0.5 0.5</probabilities>
		</cpt>
		<utility id="U_RS_E_6_2">
			<parents>RS_E_6_2</parents>
			<utilities>0 1 0 0</utilities>
		</utility>
		<cpt id="Indep_2">
			<state id="level_0" />
			<state id="level_1" />
			<state id="level_2" />
			<state id="level_3" />
			<state id="level_4" />
			<parents>Indep_1 tType_1 stType_2</parents>
			<probabilities>1 0 0 0 0 1 0 0 0 0 1 0 0 0 0 0.1 0.7 0.2 0 0 1 0 0 0 0 1 0 0 0 0 1 0 0 0 0 0.4 0.6 0 0 0 1 0 0 0 0 1 0 0 0 0 1 0 0 0 0 0.6 0.4 0 0 0 1 0 0 0 0 1 0 0 0 0 1 0 0 0 0 0.7 0.3 0 0 0 1 0 0 0 0 1 0 0 0 0 1 0 0 0 0 0.9500000000000001 0.05 0 0 0 0 1 0 0 0 0.3 0.7 0 0 0 0.3 0.7 0 0 0 0 0.1 0.7 0.2 0 0 1 0 0 0 0.5 0.5 0 0 0 0.5 0.5 0 0 0 0 0.4 0.6 0 0 0 1 0 0 0 0.6 0.4 0 0 0 0.6 0.4 0 0 0 0 0.6 0.4 0 0 0 1 0 0 0 0.75 0.25 0 0 0 0.75 0.25 0 0 0 0 0.7 0.3 0 0 0 1 0 0 0 1 0 0 0 0 1 0 0 0 0 0.05 0.9 0.05 0 0 0 0 1 0 0 0 0.3 0.7 0 0 0 0.3 0.7 0 0 0 0 0.1 0.7 0.2000000000000001 0 0 1 0 0 0 0.5 0.5 0 0 0 0.5 0.5 0 0 0 0 0.4 0.6 0 0 0 1 0 0 0 0.6 0.4 0 0 0 0.6 0.4 0 0 0 0 0.6 0.4 0 0 0 1 0 0 0 0.75 0.25 0 0 0 0.75 0.25 0 0 0 0 0.7 0.3 0 0 0 1 0 0 0.5 0.5 0 0 0 0.5 0.5 0 0 0 0 0.05 0.9 0.05 0 0 0 0 1 0 0 0 0.3 0.7 0 0 0 0.3 0.7 0 0 0 0 0.1 0.9 0 0 0 1 0 0 0 0.5 0.5 0 0 0 0.5 0.5 0 0 0 0 0.4 0.6 0 0 0 1 0 0 0 0.6 0.4 0 0 0 0.6 0.4 0 0 0 0 0.6 0.4 0 0 0 1 0 0 0 0.75 0.25 0 0 0 0.75 0.25 0 0 0 0 0.7 0.3 0 0 0 1 0 0 0.5 0.5 0 0 0 0.5 0.5 0 0 0 0 0.05 0.9 0.04999999999999993 0 0 0 0 1 0 0 0 0.3 0.7 0 0 0 0.3 0.7 0 0 0 0 1 0 0 0 0 1 0 0 0 0.5 0.5 0 0 0 0.5 0.5 0 0 0 0 1 0 0 0 0 1 0 0 0 0.6 0.4 0 0 0 0.6 0.4 0 0 0 0 1 0 0 0 0 1 0 0 0 0.75 0.25 0 0 0 0.75 0.25 0 0 0 0 1 0 0 0 0 1 0 0 0.5 0.5 0 0 0 0.5 0.5 0 0 0 0 0.05 0.95</probabilities>
		</cpt>
		<utility id="U_Indep_2">
			<parents>Indep_2</parents>
			<utilities>0 0.25 0.5 0.75 1</utilities>
		</utility>
		<cpt id="Morale_0">
			<state id="level_0" />
			<state id="level_1" />
			<state id="level_2" />
			<state id="level_3" />
			<state id="level_4" />
			<probabilities>0.01 0.09000000000000001 0.28 0.3700000000000001 0.25</probabilities>
		</cpt>
		<cpt id="Morale_1">
			<state id="level_0" />
			<state id="level_1" />
			<state id="level_2" />
			<state id="level_3" />
			<state id="level_4" />
			<parents>Morale_0 tType_1</parents>
			<probabilities>1 0 0 0 0 1 0 0 0 0 1 0 0 0 0 1 0 0 0 0 1 0 0 0 0 0 1 0 0 0 0 1 0 0 0 0 1 0 0 0 0 1 0 0 0 0 1 0 0 0 0 0 1 0 0 0 0 1 0 0 0 0 1 0 0 0 0 1 0 0 0 0 1 0 0 0 0 0 1 0 0 0 0 1 0 0 0 0 1 0 0 0 0 1 0 0 0 0 1 0 0 0 0 0 1 0 0 0 0 1 0 0 0 0 1 0 0 0 0 1 0 0 0 0 1</probabilities>
		</cpt>
		<cpt id="Morale_2">
			<state id="level_0" />
			<state id="level_1" />
			<state id="level_2" />
			<state id="level_3" />
			<state id="level_4" />
			<parents>Morale_1 tType_1 stType_2</parents>
			<probabilities>1 0 0 0 0 1 0 0 0 0 1 0 0 0 0 0 0.6 0.4 0 0 1 0 0 0 0 1 0 0 0 0 1 0 0 0 0 0.2 0.8 0 0 0 1 0 0 0 0 1 0 0 0 0 1 0 0 0 0 0.4 0.6 0 0 0 1 0 0 0 0 1 0 0 0 0 1 0 0 0 0 0.6 0.4 0 0 0 1 0 0 0 0 1 0 0 0 0 1 0 0 0 0 0.9 0.1 0 0 0 0 1 0 0 0 0.7 0.3 0 0 0 0.7 0.3 0 0 0 0 0 0.6 0.4 0 0 1 0 0 0 0.9 0.1 0 0 0 0.9 0.1 0 0 0 0 0.2 0.8 0 0 0 1 0 0 0 1 0 0 0 0 1 0 0 0 0 0 0.4 0.6 0 0 0 1 0 0 0 1 0 0 0 0 1 0 0 0 0 0 0.6 0.4 0 0 0 1 0 0 0 1 0 0 0 0 1 0 0 0 0 0.5 0.4 0.1 0 0 0 0 1 0 0 0 0.7 0.3 0 0 0 0.7 0.3 0 0 0 0 0 0.6 0.4 0 0 1 0 0 0.1 0.8 0.1 0 0 0.1 0.8 0.1 0 0 0 0 0.2 0.8 0 0 0 1 0 0 0.2 0.8 0 0 0 0.2 0.8 0 0 0 0 0 0.4 0.6 0 0 0 1 0 0 0.4 0.6 0 0 0 0.4 0.6 0 0 0 0 0 0.6 0.4 0 0 0 1 0 0 0.7 0.3 0 0 0 0.7 0.3 0 0 0 0 0.5 0.4 0.1 0 0 0 0 1 0 0 0 0.7 0.3 0 0 0 0.7 0.3 0 0 0 0 0 1 0 0 0 1 0 0 0.1 0.8 0.1 0 0 0.1 0.8 0.1 0 0 0 0 0.2 0.8 0 0 0 1 0 0 0.2 0.8 0 0 0 0.2 0.8 0 0 0 0 0 0.4 0.6 0 0 0 1 0 0 0.4 0.6 0 0 0 0.4 0.6 0 0 0 0 0 0.6 0.4 0 0 0 1 0 0 0.7 0.3 0 0 0 0.7 0.3 0 0 0 0 0.5 0.4 0.09999999999999998 0 0 0 0 1 0 0 0 0.7 0.3 0 0 0 0.7 0.3 0 0 0 0 1 0 0 0 0 1 0 0 0.1 0.8 0.09999999999999998 0 0 0.1 0.8 0.09999999999999998 0 0 0 0 1 0 0 0 0 1 0 0 0.2 0.8 0 0 0 0.2 0.8 0 0 0 0 0 1 0 0 0 0 1 0 0 0.4 0.6 0 0 0 0.4 0.6 0 0 0 0 0 1 0 0 0 0 1 0 0 0.7 0.3 0 0 0 0.7 0.3 0 0 0 0 0.5 0.5</probabilities>
		</cpt>
		<utility id="U_Morale_2">
			<parents>Morale_2</parents>
			<utilities>0 0.25 0.5 0.75 1</utilities>
		</utility>
		<cpt id="stHelpStyle_2">
			<state id="avoid" />
			<state id="neutral" />
			<state id="abuse" />
			<parents>stHelpStyle_1</parents>
			<probabilities>1 0 0 0 1 0 0 0 1</probabilities>
		</cpt>
		<utility id="U_stHelpStyle_2">
			<parents>stHelpStyle_2</parents>
			<utilities>1 1 0</utilities>
		</utility>
		<mau id="U_Rules">
			<parents>U_R_0_2 U_R_1_2 U_R_2_2 U_R_3_2 U_R_4_2 U_R_5_2 U_R_6_2 U_R_7_2 U_R_8_2 U_R_9_2 U_R_10_2 U_R_11_2 U_R_12_2</parents>
			<weights>1 1 1 1 1 1 1 1 1 1 1 1 1</weights>
		</mau>
		<mau id="U_Steps">
			<parents>U_RS_G_0_2 U_RS_G_1_2 U_RS_G_2_2 U_RS_G_3_2 U_RS_G_4_2 U_RS_G_5_2 U_RS_G_6_2 U_RS_G_7_2 U_RS_G_8_2 U_RS_E_0_2 U_RS_E_1_2 U_RS_E_2_2 U_RS_E_3_2 U_RS_E_4_2 U_RS_E_5_2 U_RS_E_6_2</parents>
			<weights>1 1 1 1 1 1 1 1 1 1 1 1 1 1 1 1</weights>
		</mau>
		<mau id="U_Total">
			<parents>U_Rules U_Steps U_Coherence_1 U_Relevance_1 U_Indep_2 U_Morale_2 U_tType_1 U_stHelpStyle_2</parents>
			<weights>40 20 1000 100 80 0 0 40</weights>
		</mau>
		<deterministic id="PH_S_G_2_R_2_1">
			<state id="null" />
			<state id="prompt" />
			<state id="hint" />
			<state id="teach" />
			<state id="do" />
			<parents>PH_S_G_2_R_2_0 tTopic_1 tType_1</parents>
			<resultingstates>null null null null null null prompt hint teach do null prompt hint teach do prompt prompt prompt prompt prompt prompt prompt hint teach do prompt prompt hint teach do hint hint hint hint hint hint hint hint teach do hint hint hint teach do teach teach teach teach teach teach teach teach teach do teach teach teach teach do do do do do do do do do do do do do do do do</resultingstates>
		</deterministic>
		<deterministic id="PH_S_G_2_R_2_2">
			<state id="null" />
			<state id="prompt" />
			<state id="hint" />
			<state id="teach" />
			<state id="do" />
			<parents>PH_S_G_2_R_2_1</parents>
			<resultingstates>null prompt hint teach do</resultingstates>
		</deterministic>
	</nodes>
	<extensions>
		<genie version="1.0" app="GeNIe 2.0.2433.0" name="Unnamed" faultnameformat="nodestate">
			<node id="stType_0">
				<name>stType_0</name>
				<interior color="e5f6f7" />
				<outline color="0000bb" />
				<font color="000000" name="Arial" size="8" />
				<position>10 10 86 46</position>
			</node>
			<node id="stTopic_0">
				<name>stTopic_0</name>
				<interior color="e5f6f7" />
				<outline color="0000bb" />
				<font color="000000" name="Arial" size="8" />
				<position>102 10 178 46</position>
			</node>
			<node id="stTopic_2">
				<name>stTopic_2</name>
				<interior color="e5f6f7" />
				<outline color="0000bb" />
				<font color="000000" name="Arial" size="8" />
				<position>10 186 86 222</position>
			</node>
			<node id="tTopic_1">
				<name>tTopic_1</name>
				<interior color="e5f6f7" />
				<outline color="0000bb" />
				<font color="000000" name="Arial" size="8" />
				<position>194 10 270 46</position>
			</node>
			<node id="stType_2">
				<name>stType_2</name>
				<interior color="e5f6f7" />
				<outline color="0000bb" />
				<font color="000000" name="Arial" size="8" />
				<position>10 318 86 354</position>
			</node>
			<node id="tType_1">
				<name>tType_1</name>
				<interior color="e5f6f7" />
				<outline color="0000bb" />
				<font color="000000" name="Arial" size="8" />
				<position>10 54 86 90</position>
			</node>
			<node id="U_tType_1">
				<name>U_tType_1</name>
				<interior color="e5f6f7" />
				<outline color="0000bb" />
				<font color="000000" name="Arial" size="8" />
				<position>10 98 86 134</position>
			</node>
			<node id="HelpSeqCoherence_1">
				<name>HelpSeqCoherence_1</name>
				<interior color="e5f6f7" />
				<outline color="0000bb" />
				<font color="000000" name="Arial" size="8" />
				<position>102 98 178 134</position>
			</node>
			<node id="Coherence_1">
				<name>Coherence_1</name>
				<interior color="e5f6f7" />
				<outline color="0000bb" />
				<font color="000000" name="Arial" size="8" />
				<position>10 142 86 178</position>
			</node>
			<node id="U_Coherence_1">
				<name>U_Coherence_1</name>
				<interior color="e5f6f7" />
				<outline color="0000bb" />
				<font color="000000" name="Arial" size="8" />
				<position>102 186 178 222</position>
			</node>
			<node id="Relevance_1">
				<name>Relevance_1</name>
				<interior color="e5f6f7" />
				<outline color="0000bb" />
				<font color="000000" name="Arial" size="8" />
				<position>194 186 270 222</position>
			</node>
			<node id="U_Relevance_1">
				<name>U_Relevance_1</name>
				<interior color="e5f6f7" />
				<outline color="0000bb" />
				<font color="000000" name="Arial" size="8" />
				<position>10 230 86 266</position>
			</node>
			<node id="R_0_0">
				<name>R_evaluate_exec_0</name>
				<interior color="e5f6f7" />
				<outline color="0000bb" />
				<font color="000000" name="Arial" size="8" />
				<position>286 10 362 46</position>
			</node>
			<node id="R_0_1">
				<name>R_evaluate_exec_1</name>
				<interior color="e5f6f7" />
				<outline color="0000bb" />
				<font color="000000" name="Arial" size="8" />
				<position>102 54 178 90</position>
			</node>
			<node id="R_0_2">
				<name>R_evaluate_exec_2</name>
				<interior color="e5f6f7" />
				<outline color="0000bb" />
				<font color="000000" name="Arial" size="8" />
				<position>194 98 270 134</position>
			</node>
			<node id="U_R_0_2">
				<name>U_R_evaluate_exec_2</name>
				<interior color="e5f6f7" />
				<outline color="0000bb" />
				<font color="000000" name="Arial" size="8" />
				<position>102 142 178 178</position>
			</node>
			<node id="R_1_0">
				<name>R_evaluate_op1_0</name>
				<interior color="e5f6f7" />
				<outline color="0000bb" />
				<font color="000000" name="Arial" size="8" />
				<position>378 10 454 46</position>
			</node>
			<node id="R_1_1">
				<name>R_evaluate_op1_1</name>
				<interior color="e5f6f7" />
				<outline color="0000bb" />
				<font color="000000" name="Arial" size="8" />
				<position>286 186 362 222</position>
			</node>
			<node id="R_1_2">
				<name>R_evaluate_op1_2</name>
				<interior color="e5f6f7" />
				<outline color="0000bb" />
				<font color="000000" name="Arial" size="8" />
				<position>102 230 178 266</position>
			</node>
			<node id="U_R_1_2">
				<name>U_R_evaluate_op1_2</name>
				<interior color="e5f6f7" />
				<outline color="0000bb" />
				<font color="000000" name="Arial" size="8" />
				<position>10 274 86 310</position>
			</node>
			<node id="R_2_0">
				<name>R_top_level_substitute_0</name>
				<interior color="e5f6f7" />
				<outline color="0000bb" />
				<font color="000000" name="Arial" size="8" />
				<position>470 10 546 46</position>
			</node>
			<node id="R_2_1">
				<name>R_top_level_substitute_1</name>
				<interior color="e5f6f7" />
				<outline color="0000bb" />
				<font color="000000" name="Arial" size="8" />
				<position>378 186 454 222</position>
			</node>
			<node id="R_2_2">
				<name>R_top_level_substitute_2</name>
				<interior color="e5f6f7" />
				<outline color="0000bb" />
				<font color="000000" name="Arial" size="8" />
				<position>194 230 270 266</position>
			</node>
			<node id="U_R_2_2">
				<name>U_R_top_level_substitute_2</name>
				<interior color="e5f6f7" />
				<outline color="0000bb" />
				<font color="000000" name="Arial" size="8" />
				<position>102 274 178 310</position>
			</node>
			<node id="R_3_0">
				<name>R_substitute_op1_0</name>
				<interior color="e5f6f7" />
				<outline color="0000bb" />
				<font color="000000" name="Arial" size="8" />
				<position>562 10 638 46</position>
			</node>
			<node id="R_3_1">
				<name>R_substitute_op1_1</name>
				<interior color="e5f6f7" />
				<outline color="0000bb" />
				<font color="000000" name="Arial" size="8" />
				<position>194 54 270 90</position>
			</node>
			<node id="R_3_2">
				<name>R_substitute_op1_2</name>
				<interior color="e5f6f7" />
				<outline color="0000bb" />
				<font color="000000" name="Arial" size="8" />
				<position>286 98 362 134</position>
			</node>
			<node id="U_R_3_2">
				<name>U_R_substitute_op1_2</name>
				<interior color="e5f6f7" />
				<outline color="0000bb" />
				<font color="000000" name="Arial" size="8" />
				<position>194 142 270 178</position>
			</node>
			<node id="R_4_0">
				<name>R_restate_mult_apply_heuristic_0</name>
				<interior color="e5f6f7" />
				<outline color="0000bb" />
				<font color="000000" name="Arial" size="8" />
				<position>654 10 730 46</position>
			</node>
			<node id="R_4_1">
				<name>R_restate_mult_apply_heuristic_1</name>
				<interior color="e5f6f7" />
				<outline color="0000bb" />
				<font color="000000" name="Arial" size="8" />
				<position>286 54 362 90</position>
			</node>
			<node id="R_4_2">
				<name>R_restate_mult_apply_heuristic_2</name>
				<interior color="e5f6f7" />
				<outline color="0000bb" />
				<font color="000000" name="Arial" size="8" />
				<position>378 98 454 134</position>
			</node>
			<node id="U_R_4_2">
				<name>U_R_restate_mult_apply_heuristic_2</name>
				<interior color="e5f6f7" />
				<outline color="0000bb" />
				<font color="000000" name="Arial" size="8" />
				<position>286 142 362 178</position>
			</node>
			<node id="R_5_0">
				<name>R_restate_op_0</name>
				<interior color="e5f6f7" />
				<outline color="0000bb" />
				<font color="000000" name="Arial" size="8" />
				<position>746 10 822 46</position>
			</node>
			<node id="R_5_1">
				<name>R_restate_op_1</name>
				<interior color="e5f6f7" />
				<outline color="0000bb" />
				<font color="000000" name="Arial" size="8" />
				<position>378 54 454 90</position>
			</node>
			<node id="R_5_2">
				<name>R_restate_op_2</name>
				<interior color="e5f6f7" />
				<outline color="0000bb" />
				<font color="000000" name="Arial" size="8" />
				<position>470 98 546 134</position>
			</node>
			<node id="U_R_5_2">
				<name>U_R_restate_op_2</name>
				<interior color="e5f6f7" />
				<outline color="0000bb" />
				<font color="000000" name="Arial" size="8" />
				<position>378 142 454 178</position>
			</node>
			<node id="R_6_0">
				<name>R_restate_mult_exec_0</name>
				<interior color="e5f6f7" />
				<outline color="0000bb" />
				<font color="000000" name="Arial" size="8" />
				<position>838 10 914 46</position>
			</node>
			<node id="R_6_1">
				<name>R_restate_mult_exec_1</name>
				<interior color="e5f6f7" />
				<outline color="0000bb" />
				<font color="000000" name="Arial" size="8" />
				<position>470 54 546 90</position>
			</node>
			<node id="R_6_2">
				<name>R_restate_mult_exec_2</name>
				<interior color="e5f6f7" />
				<outline color="0000bb" />
				<font color="000000" name="Arial" size="8" />
				<position>562 98 638 134</position>
			</node>
			<node id="U_R_6_2">
				<name>U_R_restate_mult_exec_2</name>
				<interior color="e5f6f7" />
				<outline color="0000bb" />
				<font color="000000" name="Arial" size="8" />
				<position>470 142 546 178</position>
			</node>
			<node id="R_7_0">
				<name>R_substitute_op2_0</name>
				<interior color="e5f6f7" />
				<outline color="0000bb" />
				<font color="000000" name="Arial" size="8" />
				<position>930 10 1006 46</position>
			</node>
			<node id="R_7_1">
				<name>R_substitute_op2_1</name>
				<interior color="e5f6f7" />
				<outline color="0000bb" />
				<font color="000000" name="Arial" size="8" />
				<position>562 54 638 90</position>
			</node>
			<node id="R_7_2">
				<name>R_substitute_op2_2</name>
				<interior color="e5f6f7" />
				<outline color="0000bb" />
				<font color="000000" name="Arial" size="8" />
				<position>654 98 730 134</position>
			</node>
			<node id="U_R_7_2">
				<name>U_R_substitute_op2_2</name>
				<interior color="e5f6f7" />
				<outline color="0000bb" />
				<font color="000000" name="Arial" size="8" />
				<position>562 142 638 178</position>
			</node>
			<node id="R_8_0">
				<name>R_integrate_apply_heuristic_0</name>
				<interior color="e5f6f7" />
				<outline color="0000bb" />
				<font color="000000" name="Arial" size="8" />
				<position>1022 10 1098 46</position>
			</node>
			<node id="R_8_1">
				<name>R_integrate_apply_heuristic_1</name>
				<interior color="e5f6f7" />
				<outline color="0000bb" />
				<font color="000000" name="Arial" size="8" />
				<position>654 54 730 90</position>
			</node>
			<node id="R_8_2">
				<name>R_integrate_apply_heuristic_2</name>
				<interior color="e5f6f7" />
				<outline color="0000bb" />
				<font color="000000" name="Arial" size="8" />
				<position>746 98 822 134</position>
			</node>
			<node id="U_R_8_2">
				<name>U_R_integrate_apply_heuristic_2</name>
				<interior color="e5f6f7" />
				<outline color="0000bb" />
				<font color="000000" name="Arial" size="8" />
				<position>654 142 730 178</position>
			</node>
			<node id="R_9_0">
				<name>R_integrate_op_0</name>
				<interior color="e5f6f7" />
				<outline color="0000bb" />
				<font color="000000" name="Arial" size="8" />
				<position>1114 10 1190 46</position>
			</node>
			<node id="R_9_1">
				<name>R_integrate_op_1</name>
				<interior color="e5f6f7" />
				<outline color="0000bb" />
				<font color="000000" name="Arial" size="8" />
				<position>746 54 822 90</position>
			</node>
			<node id="R_9_2">
				<name>R_integrate_op_2</name>
				<interior color="e5f6f7" />
				<outline color="0000bb" />
				<font color="000000" name="Arial" size="8" />
				<position>838 98 914 134</position>
			</node>
			<node id="U_R_9_2">
				<name>U_R_integrate_op_2</name>
				<interior color="e5f6f7" />
				<outline color="0000bb" />
				<font color="000000" name="Arial" size="8" />
				<position>746 142 822 178</position>
			</node>
			<node id="R_10_0">
				<name>R_find_eq_form_func_0</name>
				<interior color="e5f6f7" />
				<outline color="0000bb" />
				<font color="000000" name="Arial" size="8" />
				<position>1206 10 1282 46</position>
			</node>
			<node id="R_10_1">
				<name>R_find_eq_form_func_1</name>
				<interior color="e5f6f7" />
				<outline color="0000bb" />
				<font color="000000" name="Arial" size="8" />
				<position>838 54 914 90</position>
			</node>
			<node id="R_10_2">
				<name>R_find_eq_form_func_2</name>
				<interior color="e5f6f7" />
				<outline color="0000bb" />
				<font color="000000" name="Arial" size="8" />
				<position>930 98 1006 134</position>
			</node>
			<node id="U_R_10_2">
				<name>U_R_find_eq_form_func_2</name>
				<interior color="e5f6f7" />
				<outline color="0000bb" />
				<font color="000000" name="Arial" size="8" />
				<position>838 142 914 178</position>
			</node>
			<node id="R_11_0">
				<name>R_integrate_exec_0</name>
				<interior color="e5f6f7" />
				<outline color="0000bb" />
				<font color="000000" name="Arial" size="8" />
				<position>1298 10 1374 46</position>
			</node>
			<node id="R_11_1">
				<name>R_integrate_exec_1</name>
				<interior color="e5f6f7" />
				<outline color="0000bb" />
				<font color="000000" name="Arial" size="8" />
				<position>930 54 1006 90</position>
			</node>
			<node id="R_11_2">
				<name>R_integrate_exec_2</name>
				<interior color="e5f6f7" />
				<outline color="0000bb" />
				<font color="000000" name="Arial" size="8" />
				<position>1022 98 1098 134</position>
			</node>
			<node id="U_R_11_2">
				<name>U_R_integrate_exec_2</name>
				<interior color="e5f6f7" />
				<outline color="0000bb" />
				<font color="000000" name="Arial" size="8" />
				<position>930 142 1006 178</position>
			</node>
			<node id="R_12_0">
				<name>R_substitute_exec_0</name>
				<interior color="e5f6f7" />
				<outline color="0000bb" />
				<font color="000000" name="Arial" size="8" />
				<position>1390 10 1466 46</position>
			</node>
			<node id="R_12_1">
				<name>R_substitute_exec_1</name>
				<interior color="e5f6f7" />
				<outline color="0000bb" />
				<font color="000000" name="Arial" size="8" />
				<position>1022 54 1098 90</position>
			</node>
			<node id="R_12_2">
				<name>R_substitute_exec_2</name>
				<interior color="e5f6f7" />
				<outline color="0000bb" />
				<font color="000000" name="Arial" size="8" />
				<position>1114 98 1190 134</position>
			</node>
			<node id="U_R_12_2">
				<name>U_R_substitute_exec_2</name>
				<interior color="e5f6f7" />
				<outline color="0000bb" />
				<font color="000000" name="Arial" size="8" />
				<position>1022 142 1098 178</position>
			</node>
			<node id="S_G_0_0">
				<name>G_evaluate(g:i=3)_0</name>
				<interior color="e5f6f7" />
				<outline color="0000bb" />
				<font color="000000" name="Arial" size="8" />
				<position>1482 10 1558 46</position>
			</node>
			<node id="S_G_0_1">
				<name>G_evaluate(g:i=3)_1</name>
				<interior color="e5f6f7" />
				<outline color="0000bb" />
				<font color="000000" name="Arial" size="8" />
				<position>1114 54 1190 90</position>
			</node>
			<node id="S_G_0_2">
				<name>G_evaluate(g:i=3)_2</name>
				<interior color="e5f6f7" />
				<outline color="0000bb" />
				<font color="000000" name="Arial" size="8" />
				<position>1206 98 1282 134</position>
			</node>
			<node id="RS_G_0_0">
				<name>RG_evaluate(g:i=3)_0</name>
				<interior color="e5f6f7" />
				<outline color="0000bb" />
				<font color="000000" name="Arial" size="8" />
				<position>1574 10 1650 46</position>
			</node>
			<node id="RS_G_0_1">
				<name>RG_evaluate(g:i=3)_1</name>
				<interior color="e5f6f7" />
				<outline color="0000bb" />
				<font color="000000" name="Arial" size="8" />
				<position>1206 54 1282 90</position>
			</node>
			<node id="RS_G_0_2">
				<name>RG_evaluate(g:i=3)_2</name>
				<interior color="e5f6f7" />
				<outline color="0000bb" />
				<font color="000000" name="Arial" size="8" />
				<position>1298 98 1374 134</position>
			</node>
			<node id="U_RS_G_0_2">
				<name>U_RG_evaluate(g:i=3)_2</name>
				<interior color="e5f6f7" />
				<outline color="0000bb" />
				<font color="000000" name="Arial" size="8" />
				<position>1114 142 1190 178</position>
			</node>
			<node id="S_G_1_0">
				<name>G_find_eq(g:[i])_0</name>
				<interior color="e5f6f7" />
				<outline color="0000bb" />
				<font color="000000" name="Arial" size="8" />
				<position>1666 10 1742 46</position>
			</node>
			<node id="S_G_1_1">
				<name>G_find_eq(g:[i])_1</name>
				<interior color="e5f6f7" />
				<outline color="0000bb" />
				<font color="000000" name="Arial" size="8" />
				<position>286 230 362 266</position>
			</node>
			<node id="S_G_1_2">
				<name>G_find_eq(g:[i])_2</name>
				<interior color="e5f6f7" />
				<outline color="0000bb" />
				<font color="000000" name="Arial" size="8" />
				<position>194 274 270 310</position>
			</node>
			<node id="RS_G_1_0">
				<name>RG_find_eq(g:[i])_0</name>
				<interior color="e5f6f7" />
				<outline color="0000bb" />
				<font color="000000" name="Arial" size="8" />
				<position>1758 10 1834 46</position>
			</node>
			<node id="RS_G_1_1">
				<name>RG_find_eq(g:[i])_1</name>
				<interior color="e5f6f7" />
				<outline color="0000bb" />
				<font color="000000" name="Arial" size="8" />
				<position>1298 54 1374 90</position>
			</node>
			<node id="RS_G_1_2">
				<name>RG_find_eq(g:[i])_2</name>
				<interior color="e5f6f7" />
				<outline color="0000bb" />
				<font color="000000" name="Arial" size="8" />
				<position>1206 142 1282 178</position>
			</node>
			<node id="U_RS_G_1_2">
				<name>U_RG_find_eq(g:[i])_2</name>
				<interior color="e5f6f7" />
				<outline color="0000bb" />
				<font color="000000" name="Arial" size="8" />
				<position>470 186 546 222</position>
			</node>
			<node id="S_G_2_0">
				<name>G_substitute(g:[i])_0</name>
				<interior color="e5f6f7" />
				<outline color="0000bb" />
				<font color="000000" name="Arial" size="8" />
				<position>1850 10 1926 46</position>
			</node>
			<node id="S_G_2_1">
				<name>G_substitute(g:[i])_1</name>
				<interior color="e5f6f7" />
				<outline color="0000bb" />
				<font color="000000" name="Arial" size="8" />
				<position>286 274 362 310</position>
			</node>
			<node id="S_G_2_2">
				<name>G_substitute(g:[i])_2</name>
				<interior color="e5f6f7" />
				<outline color="0000bb" />
				<font color="000000" name="Arial" size="8" />
				<position>10 362 86 398</position>
			</node>
			<node id="RS_G_2_0">
				<name>RG_substitute(g:[i])_0</name>
				<interior color="e5f6f7" />
				<outline color="0000bb" />
				<font color="000000" name="Arial" size="8" />
				<position>1942 10 2018 46</position>
			</node>
			<node id="RS_G_2_1">
				<name>RG_substitute(g:[i])_1</name>
				<interior color="e5f6f7" />
				<outline color="0000bb" />
				<font color="000000" name="Arial" size="8" />
				<position>1298 142 1374 178</position>
			</node>
			<node id="RS_G_2_2">
				<name>RG_substitute(g:[i])_2</name>
				<interior color="e5f6f7" />
				<outline color="0000bb" />
				<font color="000000" name="Arial" size="8" />
				<position>102 362 178 398</position>
			</node>
			<node id="U_RS_G_2_2">
				<name>U_RG_substitute(g:[i])_2</name>
				<interior color="e5f6f7" />
				<outline color="0000bb" />
				<font color="000000" name="Arial" size="8" />
				<position>10 406 86 442</position>
			</node>
			<node id="S_G_3_0">
				<name>G_find_eq(g:[h])_0</name>
				<interior color="e5f6f7" />
				<outline color="0000bb" />
				<font color="000000" name="Arial" size="8" />
				<position>2034 10 2110 46</position>
			</node>
			<node id="S_G_3_1">
				<name>G_find_eq(g:[h])_1</name>
				<interior color="e5f6f7" />
				<outline color="0000bb" />
				<font color="000000" name="Arial" size="8" />
				<position>102 318 178 354</position>
			</node>
			<node id="S_G_3_2">
				<name>G_find_eq(g:[h])_2</name>
				<interior color="e5f6f7" />
				<outline color="0000bb" />
				<font color="000000" name="Arial" size="8" />
				<position>102 406 178 442</position>
			</node>
			<node id="RS_G_3_0">
				<name>RG_find_eq(g:[h])_0</name>
				<interior color="e5f6f7" />
				<outline color="0000bb" />
				<font color="000000" name="Arial" size="8" />
				<position>2126 10 2202 46</position>
			</node>
			<node id="RS_G_3_1">
				<name>RG_find_eq(g:[h])_1</name>
				<interior color="e5f6f7" />
				<outline color="0000bb" />
				<font color="000000" name="Arial" size="8" />
				<position>1390 54 1466 90</position>
			</node>
			<node id="RS_G_3_2">
				<name>RG_find_eq(g:[h])_2</name>
				<interior color="e5f6f7" />
				<outline color="0000bb" />
				<font color="000000" name="Arial" size="8" />
				<position>194 406 270 442</position>
			</node>
			<node id="U_RS_G_3_2">
				<name>U_RG_find_eq(g:[h])_2</name>
				<interior color="e5f6f7" />
				<outline color="0000bb" />
				<font color="000000" name="Arial" size="8" />
				<position>10 450 86 486</position>
			</node>
			<node id="S_G_4_0">
				<name>G_restate(g:[h])_0</name>
				<interior color="e5f6f7" />
				<outline color="0000bb" />
				<font color="000000" name="Arial" size="8" />
				<position>2218 10 2294 46</position>
			</node>
			<node id="S_G_4_1">
				<name>G_restate(g:[h])_1</name>
				<interior color="e5f6f7" />
				<outline color="0000bb" />
				<font color="000000" name="Arial" size="8" />
				<position>194 362 270 398</position>
			</node>
			<node id="S_G_4_2">
				<name>G_restate(g:[h])_2</name>
				<interior color="e5f6f7" />
				<outline color="0000bb" />
				<font color="000000" name="Arial" size="8" />
				<position>102 450 178 486</position>
			</node>
			<node id="RS_G_4_0">
				<name>RG_restate(g:[h])_0</name>
				<interior color="e5f6f7" />
				<outline color="0000bb" />
				<font color="000000" name="Arial" size="8" />
				<position>2310 10 2386 46</position>
			</node>
			<node id="RS_G_4_1">
				<name>RG_restate(g:[h])_1</name>
				<interior color="e5f6f7" />
				<outline color="0000bb" />
				<font color="000000" name="Arial" size="8" />
				<position>1482 54 1558 90</position>
			</node>
			<node id="RS_G_4_2">
				<name>RG_restate(g:[h])_2</name>
				<interior color="e5f6f7" />
				<outline color="0000bb" />
				<font color="000000" name="Arial" size="8" />
				<position>194 450 270 486</position>
			</node>
			<node id="U_RS_G_4_2">
				<name>U_RG_restate(g:[h])_2</name>
				<interior color="e5f6f7" />
				<outline color="0000bb" />
				<font color="000000" name="Arial" size="8" />
				<position>10 494 86 530</position>
			</node>
			<node id="S_G_5_0">
				<name>G_find_eq(h:[g])_0</name>
				<interior color="e5f6f7" />
				<outline color="0000bb" />
				<font color="000000" name="Arial" size="8" />
				<position>2402 10 2478 46</position>
			</node>
			<node id="S_G_5_1">
				<name>G_find_eq(h:[g])_1</name>
				<interior color="e5f6f7" />
				<outline color="0000bb" />
				<font color="000000" name="Arial" size="8" />
				<position>286 406 362 442</position>
			</node>
			<node id="S_G_5_2">
				<name>G_find_eq(h:[g])_2</name>
				<interior color="e5f6f7" />
				<outline color="0000bb" />
				<font color="000000" name="Arial" size="8" />
				<position>102 494 178 530</position>
			</node>
			<node id="RS_G_5_0">
				<name>RG_find_eq(h:[g])_0</name>
				<interior color="e5f6f7" />
				<outline color="0000bb" />
				<font color="000000" name="Arial" size="8" />
				<position>2494 10 2570 46</position>
			</node>
			<node id="RS_G_5_1">
				<name>RG_find_eq(h:[g])_1</name>
				<interior color="e5f6f7" />
				<outline color="0000bb" />
				<font color="000000" name="Arial" size="8" />
				<position>1574 54 1650 90</position>
			</node>
			<node id="RS_G_5_2">
				<name>RG_find_eq(h:[g])_2</name>
				<interior color="e5f6f7" />
				<outline color="0000bb" />
				<font color="000000" name="Arial" size="8" />
				<position>194 494 270 530</position>
			</node>
			<node id="U_RS_G_5_2">
				<name>U_RG_find_eq(h:[g])_2</name>
				<interior color="e5f6f7" />
				<outline color="0000bb" />
				<font color="000000" name="Arial" size="8" />
				<position>10 538 86 574</position>
			</node>
			<node id="S_G_6_0">
				<name>G_find_eq(h:[i])_0</name>
				<interior color="e5f6f7" />
				<outline color="0000bb" />
				<font color="000000" name="Arial" size="8" />
				<position>2586 10 2662 46</position>
			</node>
			<node id="S_G_6_1">
				<name>G_find_eq(h:[i])_1</name>
				<interior color="e5f6f7" />
				<outline color="0000bb" />
				<font color="000000" name="Arial" size="8" />
				<position>194 318 270 354</position>
			</node>
			<node id="S_G_6_2">
				<name>G_find_eq(h:[i])_2</name>
				<interior color="e5f6f7" />
				<outline color="0000bb" />
				<font color="000000" name="Arial" size="8" />
				<position>378 406 454 442</position>
			</node>
			<node id="RS_G_6_0">
				<name>RG_find_eq(h:[i])_0</name>
				<interior color="e5f6f7" />
				<outline color="0000bb" />
				<font color="000000" name="Arial" size="8" />
				<position>2678 10 2754 46</position>
			</node>
			<node id="RS_G_6_1">
				<name>RG_find_eq(h:[i])_1</name>
				<interior color="e5f6f7" />
				<outline color="0000bb" />
				<font color="000000" name="Arial" size="8" />
				<position>1666 54 1742 90</position>
			</node>
			<node id="RS_G_6_2">
				<name>RG_find_eq(h:[i])_2</name>
				<interior color="e5f6f7" />
				<outline color="0000bb" />
				<font color="000000" name="Arial" size="8" />
				<position>470 406 546 442</position>
			</node>
			<node id="U_RS_G_6_2">
				<name>U_RG_find_eq(h:[i])_2</name>
				<interior color="e5f6f7" />
				<outline color="0000bb" />
				<font color="000000" name="Arial" size="8" />
				<position>286 450 362 486</position>
			</node>
			<node id="S_G_7_0">
				<name>G_integrate(h:[i])_0</name>
				<interior color="e5f6f7" />
				<outline color="0000bb" />
				<font color="000000" name="Arial" size="8" />
				<position>2770 10 2846 46</position>
			</node>
			<node id="S_G_7_1">
				<name>G_integrate(h:[i])_1</name>
				<interior color="e5f6f7" />
				<outline color="0000bb" />
				<font color="000000" name="Arial" size="8" />
				<position>286 362 362 398</position>
			</node>
			<node id="S_G_7_2">
				<name>G_integrate(h:[i])_2</name>
				<interior color="e5f6f7" />
				<outline color="0000bb" />
				<font color="000000" name="Arial" size="8" />
				<position>378 450 454 486</position>
			</node>
			<node id="RS_G_7_0">
				<name>RG_integrate(h:[i])_0</name>
				<interior color="e5f6f7" />
				<outline color="0000bb" />
				<font color="000000" name="Arial" size="8" />
				<position>2862 10 2938 46</position>
			</node>
			<node id="RS_G_7_1">
				<name>RG_integrate(h:[i])_1</name>
				<interior color="e5f6f7" />
				<outline color="0000bb" />
				<font color="000000" name="Arial" size="8" />
				<position>1758 54 1834 90</position>
			</node>
			<node id="RS_G_7_2">
				<name>RG_integrate(h:[i])_2</name>
				<interior color="e5f6f7" />
				<outline color="0000bb" />
				<font color="000000" name="Arial" size="8" />
				<position>470 450 546 486</position>
			</node>
			<node id="U_RS_G_7_2">
				<name>U_RG_integrate(h:[i])_2</name>
				<interior color="e5f6f7" />
				<outline color="0000bb" />
				<font color="000000" name="Arial" size="8" />
				<position>286 494 362 530</position>
			</node>
			<node id="S_G_8_0">
				<name>G_find_eq(dh/di:[i])_0</name>
				<interior color="e5f6f7" />
				<outline color="0000bb" />
				<font color="000000" name="Arial" size="8" />
				<position>2954 10 3030 46</position>
			</node>
			<node id="S_G_8_1">
				<name>G_find_eq(dh/di:[i])_1</name>
				<interior color="e5f6f7" />
				<outline color="0000bb" />
				<font color="000000" name="Arial" size="8" />
				<position>562 406 638 442</position>
			</node>
			<node id="S_G_8_2">
				<name>G_find_eq(dh/di:[i])_2</name>
				<interior color="e5f6f7" />
				<outline color="0000bb" />
				<font color="000000" name="Arial" size="8" />
				<position>378 494 454 530</position>
			</node>
			<node id="RS_G_8_0">
				<name>RG_find_eq(dh/di:[i])_0</name>
				<interior color="e5f6f7" />
				<outline color="0000bb" />
				<font color="000000" name="Arial" size="8" />
				<position>3046 10 3122 46</position>
			</node>
			<node id="RS_G_8_1">
				<name>RG_find_eq(dh/di:[i])_1</name>
				<interior color="e5f6f7" />
				<outline color="0000bb" />
				<font color="000000" name="Arial" size="8" />
				<position>1850 54 1926 90</position>
			</node>
			<node id="RS_G_8_2">
				<name>RG_find_eq(dh/di:[i])_2</name>
				<interior color="e5f6f7" />
				<outline color="0000bb" />
				<font color="000000" name="Arial" size="8" />
				<position>470 494 546 530</position>
			</node>
			<node id="U_RS_G_8_2">
				<name>U_RG_find_eq(dh/di:[i])_2</name>
				<interior color="e5f6f7" />
				<outline color="0000bb" />
				<font color="000000" name="Arial" size="8" />
				<position>102 538 178 574</position>
			</node>
			<node id="S_E_0_0">
				<name>E_h=1/4*g_0</name>
				<interior color="e5f6f7" />
				<outline color="0000bb" />
				<font color="000000" name="Arial" size="8" />
				<position>3138 10 3214 46</position>
			</node>
			<node id="S_E_0_1">
				<name>E_h=1/4*g_1</name>
				<interior color="e5f6f7" />
				<outline color="0000bb" />
				<font color="000000" name="Arial" size="8" />
				<position>562 450 638 486</position>
			</node>
			<node id="S_E_0_2">
				<name>E_h=1/4*g_2</name>
				<interior color="e5f6f7" />
				<outline color="0000bb" />
				<font color="000000" name="Arial" size="8" />
				<position>194 538 270 574</position>
			</node>
			<node id="RS_E_0_0">
				<name>RE_h=1/4*g_0</name>
				<interior color="e5f6f7" />
				<outline color="0000bb" />
				<font color="000000" name="Arial" size="8" />
				<position>3230 10 3306 46</position>
			</node>
			<node id="RS_E_0_1">
				<name>RE_h=1/4*g_1</name>
				<interior color="e5f6f7" />
				<outline color="0000bb" />
				<font color="000000" name="Arial" size="8" />
				<position>1942 54 2018 90</position>
			</node>
			<node id="RS_E_0_2">
				<name>RE_h=1/4*g_2</name>
				<interior color="e5f6f7" />
				<outline color="0000bb" />
				<font color="000000" name="Arial" size="8" />
				<position>286 538 362 574</position>
			</node>
			<node id="U_RS_E_0_2">
				<name>U_RE_h=1/4*g_2</name>
				<interior color="e5f6f7" />
				<outline color="0000bb" />
				<font color="000000" name="Arial" size="8" />
				<position>10 582 86 618</position>
			</node>
			<node id="S_E_1_0">
				<name>E_g=4*h_0</name>
				<interior color="e5f6f7" />
				<outline color="0000bb" />
				<font color="000000" name="Arial" size="8" />
				<position>3322 10 3398 46</position>
			</node>
			<node id="S_E_1_1">
				<name>E_g=4*h_1</name>
				<interior color="e5f6f7" />
				<outline color="0000bb" />
				<font color="000000" name="Arial" size="8" />
				<position>562 494 638 530</position>
			</node>
			<node id="S_E_1_2">
				<name>E_g=4*h_2</name>
				<interior color="e5f6f7" />
				<outline color="0000bb" />
				<font color="000000" name="Arial" size="8" />
				<position>102 582 178 618</position>
			</node>
			<node id="RS_E_1_0">
				<name>RE_g=4*h_0</name>
				<interior color="e5f6f7" />
				<outline color="0000bb" />
				<font color="000000" name="Arial" size="8" />
				<position>3414 10 3490 46</position>
			</node>
			<node id="RS_E_1_1">
				<name>RE_g=4*h_1</name>
				<interior color="e5f6f7" />
				<outline color="0000bb" />
				<font color="000000" name="Arial" size="8" />
				<position>2034 54 2110 90</position>
			</node>
			<node id="RS_E_1_2">
				<name>RE_g=4*h_2</name>
				<interior color="e5f6f7" />
				<outline color="0000bb" />
				<font color="000000" name="Arial" size="8" />
				<position>194 582 270 618</position>
			</node>
			<node id="U_RS_E_1_2">
				<name>U_RE_g=4*h_2</name>
				<interior color="e5f6f7" />
				<outline color="0000bb" />
				<font color="000000" name="Arial" size="8" />
				<position>10 626 86 662</position>
			</node>
			<node id="S_E_2_0">
				<name>E_dh/di=6*i^2_0</name>
				<interior color="e5f6f7" />
				<outline color="0000bb" />
				<font color="000000" name="Arial" size="8" />
				<position>3506 10 3582 46</position>
			</node>
			<node id="S_E_2_1">
				<name>E_dh/di=6*i^2_1</name>
				<interior color="e5f6f7" />
				<outline color="0000bb" />
				<font color="000000" name="Arial" size="8" />
				<position>654 450 730 486</position>
			</node>
			<node id="S_E_2_2">
				<name>E_dh/di=6*i^2_2</name>
				<interior color="e5f6f7" />
				<outline color="0000bb" />
				<font color="000000" name="Arial" size="8" />
				<position>378 538 454 574</position>
			</node>
			<node id="RS_E_2_0">
				<name>RE_dh/di=6*i^2_0</name>
				<interior color="e5f6f7" />
				<outline color="0000bb" />
				<font color="000000" name="Arial" size="8" />
				<position>3598 10 3674 46</position>
			</node>
			<node id="RS_E_2_1">
				<name>RE_dh/di=6*i^2_1</name>
				<interior color="e5f6f7" />
				<outline color="0000bb" />
				<font color="000000" name="Arial" size="8" />
				<position>2126 54 2202 90</position>
			</node>
			<node id="RS_E_2_2">
				<name>RE_dh/di=6*i^2_2</name>
				<interior color="e5f6f7" />
				<outline color="0000bb" />
				<font color="000000" name="Arial" size="8" />
				<position>470 538 546 574</position>
			</node>
			<node id="U_RS_E_2_2">
				<name>U_RE_dh/di=6*i^2_2</name>
				<interior color="e5f6f7" />
				<outline color="0000bb" />
				<font color="000000" name="Arial" size="8" />
				<position>286 582 362 618</position>
			</node>
			<node id="S_E_3_0">
				<name>E_h=2*i^3_0</name>
				<interior color="e5f6f7" />
				<outline color="0000bb" />
				<font color="000000" name="Arial" size="8" />
				<position>3690 10 3766 46</position>
			</node>
			<node id="S_E_3_1">
				<name>E_h=2*i^3_1</name>
				<interior color="e5f6f7" />
				<outline color="0000bb" />
				<font color="000000" name="Arial" size="8" />
				<position>654 494 730 530</position>
			</node>
			<node id="S_E_3_2">
				<name>E_h=2*i^3_2</name>
				<interior color="e5f6f7" />
				<outline color="0000bb" />
				<font color="000000" name="Arial" size="8" />
				<position>378 582 454 618</position>
			</node>
			<node id="RS_E_3_0">
				<name>RE_h=2*i^3_0</name>
				<interior color="e5f6f7" />
				<outline color="0000bb" />
				<font color="000000" name="Arial" size="8" />
				<position>3782 10 3858 46</position>
			</node>
			<node id="RS_E_3_1">
				<name>RE_h=2*i^3_1</name>
				<interior color="e5f6f7" />
				<outline color="0000bb" />
				<font color="000000" name="Arial" size="8" />
				<position>2218 54 2294 90</position>
			</node>
			<node id="RS_E_3_2">
				<name>RE_h=2*i^3_2</name>
				<interior color="e5f6f7" />
				<outline color="0000bb" />
				<font color="000000" name="Arial" size="8" />
				<position>470 582 546 618</position>
			</node>
			<node id="U_RS_E_3_2">
				<name>U_RE_h=2*i^3_2</name>
				<interior color="e5f6f7" />
				<outline color="0000bb" />
				<font color="000000" name="Arial" size="8" />
				<position>102 626 178 662</position>
			</node>
			<node id="S_E_4_0">
				<name>E_g=8*i^3_0</name>
				<interior color="e5f6f7" />
				<outline color="0000bb" />
				<font color="000000" name="Arial" size="8" />
				<position>3874 10 3950 46</position>
			</node>
			<node id="S_E_4_1">
				<name>E_g=8*i^3_1</name>
				<interior color="e5f6f7" />
				<outline color="0000bb" />
				<font color="000000" name="Arial" size="8" />
				<position>562 538 638 574</position>
			</node>
			<node id="S_E_4_2">
				<name>E_g=8*i^3_2</name>
				<interior color="e5f6f7" />
				<outline color="0000bb" />
				<font color="000000" name="Arial" size="8" />
				<position>194 626 270 662</position>
			</node>
			<node id="RS_E_4_0">
				<name>RE_g=8*i^3_0</name>
				<interior color="e5f6f7" />
				<outline color="0000bb" />
				<font color="000000" name="Arial" size="8" />
				<position>3966 10 4042 46</position>
			</node>
			<node id="RS_E_4_1">
				<name>RE_g=8*i^3_1</name>
				<interior color="e5f6f7" />
				<outline color="0000bb" />
				<font color="000000" name="Arial" size="8" />
				<position>2310 54 2386 90</position>
			</node>
			<node id="RS_E_4_2">
				<name>RE_g=8*i^3_2</name>
				<interior color="e5f6f7" />
				<outline color="0000bb" />
				<font color="000000" name="Arial" size="8" />
				<position>286 626 362 662</position>
			</node>
			<node id="U_RS_E_4_2">
				<name>U_RE_g=8*i^3_2</name>
				<interior color="e5f6f7" />
				<outline color="0000bb" />
				<font color="000000" name="Arial" size="8" />
				<position>10 670 86 706</position>
			</node>
			<node id="S_E_5_0">
				<name>E_i=3_0</name>
				<interior color="e5f6f7" />
				<outline color="0000bb" />
				<font color="000000" name="Arial" size="8" />
				<position>4058 10 4134 46</position>
			</node>
			<node id="S_E_5_1">
				<name>E_i=3_1</name>
				<interior color="e5f6f7" />
				<outline color="0000bb" />
				<font color="000000" name="Arial" size="8" />
				<position>2402 54 2478 90</position>
			</node>
			<node id="S_E_5_2">
				<name>E_i=3_2</name>
				<interior color="e5f6f7" />
				<outline color="0000bb" />
				<font color="000000" name="Arial" size="8" />
				<position>1390 98 1466 134</position>
			</node>
			<node id="RS_E_5_0">
				<name>RE_i=3_0</name>
				<interior color="e5f6f7" />
				<outline color="0000bb" />
				<font color="000000" name="Arial" size="8" />
				<position>4150 10 4226 46</position>
			</node>
			<node id="RS_E_5_1">
				<name>RE_i=3_1</name>
				<interior color="e5f6f7" />
				<outline color="0000bb" />
				<font color="000000" name="Arial" size="8" />
				<position>2494 54 2570 90</position>
			</node>
			<node id="RS_E_5_2">
				<name>RE_i=3_2</name>
				<interior color="e5f6f7" />
				<outline color="0000bb" />
				<font color="000000" name="Arial" size="8" />
				<position>1482 98 1558 134</position>
			</node>
			<node id="U_RS_E_5_2">
				<name>U_RE_i=3_2</name>
				<interior color="e5f6f7" />
				<outline color="0000bb" />
				<font color="000000" name="Arial" size="8" />
				<position>1390 142 1466 178</position>
			</node>
			<node id="S_E_6_0">
				<name>E_g=216_0</name>
				<interior color="e5f6f7" />
				<outline color="0000bb" />
				<font color="000000" name="Arial" size="8" />
				<position>4242 10 4318 46</position>
			</node>
			<node id="S_E_6_1">
				<name>E_g=216_1</name>
				<interior color="e5f6f7" />
				<outline color="0000bb" />
				<font color="000000" name="Arial" size="8" />
				<position>562 582 638 618</position>
			</node>
			<node id="S_E_6_2">
				<name>E_g=216_2</name>
				<interior color="e5f6f7" />
				<outline color="0000bb" />
				<font color="000000" name="Arial" size="8" />
				<position>102 670 178 706</position>
			</node>
			<node id="RS_E_6_0">
				<name>RE_g=216_0</name>
				<interior color="e5f6f7" />
				<outline color="0000bb" />
				<font color="000000" name="Arial" size="8" />
				<position>4334 10 4410 46</position>
			</node>
			<node id="RS_E_6_1">
				<name>RE_g=216_1</name>
				<interior color="e5f6f7" />
				<outline color="0000bb" />
				<font color="000000" name="Arial" size="8" />
				<position>2586 54 2662 90</position>
			</node>
			<node id="RS_E_6_2">
				<name>RE_g=216_2</name>
				<interior color="e5f6f7" />
				<outline color="0000bb" />
				<font color="000000" name="Arial" size="8" />
				<position>194 670 270 706</position>
			</node>
			<node id="U_RS_E_6_2">
				<name>U_RE_g=216_2</name>
				<interior color="e5f6f7" />
				<outline color="0000bb" />
				<font color="000000" name="Arial" size="8" />
				<position>10 714 86 750</position>
			</node>
			<node id="Indep_0">
				<name>Indep_0</name>
				<interior color="e5f6f7" />
				<outline color="0000bb" />
				<font color="000000" name="Arial" size="8" />
				<position>4426 10 4502 46</position>
			</node>
			<node id="Indep_1">
				<name>Indep_1</name>
				<interior color="e5f6f7" />
				<outline color="0000bb" />
				<font color="000000" name="Arial" size="8" />
				<position>1574 98 1650 134</position>
			</node>
			<node id="Indep_2">
				<name>Indep_2</name>
				<interior color="e5f6f7" />
				<outline color="0000bb" />
				<font color="000000" name="Arial" size="8" />
				<position>378 362 454 398</position>
			</node>
			<node id="U_Indep_2">
				<name>U_Indep_2</name>
				<interior color="e5f6f7" />
				<outline color="0000bb" />
				<font color="000000" name="Arial" size="8" />
				<position>654 406 730 442</position>
			</node>
			<node id="Morale_0">
				<name>Morale_0</name>
				<interior color="e5f6f7" />
				<outline color="0000bb" />
				<font color="000000" name="Arial" size="8" />
				<position>4518 10 4594 46</position>
			</node>
			<node id="Morale_1">
				<name>Morale_1</name>
				<interior color="e5f6f7" />
				<outline color="0000bb" />
				<font color="000000" name="Arial" size="8" />
				<position>1666 98 1742 134</position>
			</node>
			<node id="Morale_2">
				<name>Morale_2</name>
				<interior color="e5f6f7" />
				<outline color="0000bb" />
				<font color="000000" name="Arial" size="8" />
				<position>470 362 546 398</position>
			</node>
			<node id="U_Morale_2">
				<name>U_Morale_2</name>
				<interior color="e5f6f7" />
				<outline color="0000bb" />
				<font color="000000" name="Arial" size="8" />
				<position>746 406 822 442</position>
			</node>
			<node id="stHelpStyle_0">
				<name>stHelpStyle_0</name>
				<interior color="e5f6f7" />
				<outline color="0000bb" />
